108 70
餅鋪 0.0006169344 0.0050302963 0.005472259 -0.00079272944 0.0008532586 0.0047389125 0.0012033703 -0.0038564585 0.007311927 -0.0004803851 -0.0032317615 -0.0035989506 0.0022463526 -0.0003902948 0.0038545593 0.0026184241 -0.007289762 -0.004769434 0.007625079 0.0004432086 -0.0020242576 0.008191132 0.0050084423 -0.006394445 -0.0039357105 0.0069116685 -0.0017420354 -0.00031858892 -0.0063458625 0.0031604958 0.0058840765 0.0034203979 -0.0045022303 0.0052631246 0.0024532916 0.0046256594 -0.0049701366 -0.0066069346 -0.0061750514 0.0065055424 0.0033010314 0.004051635 0.0038251495 -0.0024404977 -0.0036357779 -0.005614632 0.0015753718 0.0057171606 0.00027111667 -0.0030515234 -0.006311039 0.0034385126 0.0046690865 -0.00038646138 -0.004017323 0.007608887 -0.005208429 -0.0009861264 -0.0036374547 -0.002514343 -0.0040225103 0.003290909 -0.0054404754 0.0013755268 7.474833e-05 -0.0012183137 -0.0065375133 0.0046106074 -0.005949167 -0.0003797198
捷運站 -0.0035070498 0.004695963 -0.0044997656 0.0033429672 0.001132026 -0.0062884507 0.003488647 -0.0059547313 -0.005281949 0.0072095986 -0.001080402 -0.006776588 -0.0030757233 0.0015059598 -0.004384346 0.0065748654 0.0011302953 -0.0036633972 -0.0019402062 -0.0014270558 -0.0027339072 0.0031872115 -0.0035132512 0.0010390126 0.00351391 0.0062982156 0.0011420186 -0.0062185526 0.0011350028 -0.0059874645 0.00030212695 -0.006753257 0.00012548958 0.0011553945 0.0050408063 -0.007953167 -0.004255901 0.004470626 0.0046112514 0.00073629885 0.0030697708 -0.0027501155 -0.00044671335 -0.00088474946 -0.008108954 0.001544392 -0.0071676797 0.0026051907 -0.004088569 0.004401025 0.0025151977 0.003997339 -0.0010953348 -0.0017788762 0.0037196034 -0.00023836055 -0.0027074555 7.755154e-05 0.0028450084 -0.0018261463 -0.0075992798 -0.006110348 -0.005188225 0.0062907636 0.007056093 0.0053239255 -0.0071656755 0.0026560908 0.0025695898 -0.0081189275
捷運 -0.007329155 -0.004654249 -0.0034325558 -4.8238824e-05 0.0061812885 0.0016716146 0.00061286683 0.00709126 0.0014401681 0.0020243388 0.0017884828 0.005214538 -0.002221952 0.0024255414 0.0012585055 0.0052967765 -0.0066331527 -0.006813263 -0.0020425702 0.0051686983 -0.0065888395 0.0048747775 0.0072150165 0.0058160624 0.00076205656 -0.005094072 0.00015335644 -0.005610719 0.0010813778 -0.0032056305 0.005535437 -0.0018841478 0.005366862 0.007079551 0.0056965435 -0.00863519 -0.002244808 0.003905327 -0.0035398311 0.004223777 -0.00058186386 -0.00017736321 -0.0051419106 -0.006165172 -0.0064042346 -0.001368614 0.0034771604 0.0017454914 -0.0015385968 -0.0014382291 0.006911608 -0.004304078 0.003979724 0.0077697714 0.0017544167 -0.0041866987 -0.007273261 -0.006670397 -0.0061481535 0.005611098 -0.0020833667 -0.0042167837 -0.0035863942 0.0039832327 0.007340929 -0.0055039227 0.005826203 -0.0041449293 0.0071176114 -0.004828147
氣象 -0.0076164277 0.0074237846 0.0041883737 0.0012147519 0.005093163 -0.0018365873 0.0063508227 0.00052838423 0.0060908785 -0.00039549632 -0.0018756014 -0.007264571 0.008469317 -0.0051487503 -0.004874187 -0.00048705764 0.0047137374 0.0036798678 0.0052182344 0.008094598 -0.0003872244 0.0066590314 -0.0058061504 0.0055296933 0.0018979234 0.0062917573 0.0022622428 -0.0069657285 -0.0028523803 -0.0048651965 -0.0009358687 -0.0014563679 -0.008041788 0.006863769 0.004107857 -0.010472818 0.006686319 -0.0069502224 -0.0035425092 -0.0053489157 -0.00245561 0.010958801 0.0015486461 0.003964112 0.0034581097 -0.0045104376 -0.0052983635 -0.0036450704 0.0005097722 0.0020350956 -0.00466706 0.0020914266 -0.0029719602 0.0016148088 -0.0031095408 0.008100438 0.0041794404 0.0011841023 -0.009671477 -0.0063828807 0.0015737249 0.0024506813 0.0014338725 0.0016485841 0.0017115783 -0.006927554 -0.004663398 -0.0015506933 -0.0029145516 -0.007708782
氣候 -0.0046400167 0.006756406 0.0037539927 0.0007025471 -0.004286571 -0.003396904 -0.0024556876 -0.0054163025 0.0027334073 0.0040443805 0.006775557 0.006355763 -0.0011491083 -0.0026563182 -0.0006843875 0.0019216014 -0.0039359755 -0.0049925647 0.008502622 0.0023531013 -0.0018079781 3.111636e-05 -8.942668e-05 0.002901259 -0.0021249163 -0.00063712656 0.0014903705 -0.0061544594 -0.005144876 0.0046614227 0.002310989 0.0019331389 -0.005341736 0.0023934657 0.0031288066 0.0050960155 0.0035024283 0.001967298 -0.0032375865 0.0052502486 -0.002658524 0.004630376 0.00018941895 -0.0012691622 0.004184345 -0.0024727108 -0.004105461 -0.007999777 0.0056505557 0.006206953 0.0065292907 0.006680008 -0.0059881653 0.0023288387 0.0070705465 -0.0034891798 -0.002070956 0.0032670053 7.850883e-05 -0.0004599418 0.005083179 -0.0074332487 -0.0005320468 6.529565e-05 1.085075e-05 0.002084567 -0.002369146 0.0017999944 -0.0012985514 -0.0064403913
下雨 0.0040308223 -0.0014509867 0.0064935833 -0.0039272094 0.0019066572 0.0011042973 -0.00046003176 0.0063014254 -0.0017673677 0.000981586 0.0003649571 -2.8579876e-05 0.0040446185 0.0052735438 -0.0030387088 0.0047521936 0.005901867 9.52923e-05 -0.0026284512 0.0017972796 0.0051531834 0.004244004 -0.002496376 0.00014356105 0.0044247317 -0.0068448526 -0.0039594737 0.0004718382 -0.0014577088 -0.0058134403 0.0064337687 -0.0052385037 -0.005460903 0.003280069 -0.0028283994 -0.0021528702 -0.0052516875 0.0054440065 -0.0013051091 0.00044153657 0.0048951795 0.0049543567 0.003585416 -0.0016604479 0.0001606627 0.0050045853 -0.0024589866 0.0007950574 -0.0013267754 -0.003792255 0.006592713 0.0013625667 0.00500231 -5.5597346e-05 0.000797157 0.00033934374 -0.003561623 -0.0054255654 -0.0041114683 -0.0010159927 0.0023232503 -0.0017459661 -0.007310378 0.0011731231 -0.005648199 0.005235226 0.0020009 0.007836453 -0.0052971924 -0.00087916106
太陽 -0.0066148513 0.0023888326 0.002053887 0.0072791143 -0.002886129 -0.0072851344 0.0021694137 0.0047577047 0.0051969467 0.0039607924 0.001533615 -0.0022128306 0.0071806265 -0.0038849835 0.0031144056 -0.000760039 -0.0014143542 -0.0067882007 -0.0013984041 -0.005300192 0.00041037487 -0.0023998916 -0.0022634666 -0.00019061546 -0.003904709 -0.0012189874 -0.0021383364 0.0031610904 -0.0043399227 -0.0063115354 0.0065937703 0.00075677264 0.0013148814 -0.0053944364 -0.006668952 -0.005306736 -0.0054137777 -0.004748245 -0.004489244 0.0027198517 0.0072533423 0.008446243 0.00013162725 0.0060112826 -0.0034595577 -0.0046763956 0.004421792 -0.0010374421 0.006067539 -0.004029341 -0.0057131695 -0.0009882528 -0.0075844894 -0.00055149203 -0.005525416 0.0012996704 -0.00525975 -0.006042747 -0.0002543088 -0.005391476 0.0036146778 0.0041728956 -0.0022965712 0.001451998 0.007467815 0.0015516595 -0.0022040352 0.0056061707 0.0046571647 0.0010391648
陰天 -0.004744449 0.00076117326 0.0007605219 -0.0026282044 0.0017367919 0.005906174 -0.0028394097 0.00061246403 0.00024273344 0.00831175 -0.0033392238 -0.0032104994 0.0059893657 0.0052113184 -0.0049060914 0.004668631 0.0050106295 -0.007549962 0.009570509 -0.0056469794 -0.0007173491 -0.0036541268 -0.0023818617 -0.0038993468 0.0056785652 -0.0025503335 0.0043902206 -0.00051521417 -0.0058681015 -0.0053354497 0.00458053 0.0014189893 -0.00744894 0.0003792359 -0.0066106375 -0.008241971 0.007013242 -0.0076992754 0.00046537063 -0.0028510788 -0.0031313384 0.0037180844 -0.0039769732 0.0014555677 0.002494309 0.0031766945 -0.0020749674 -0.0054198466 -0.0027663035 0.005364588 0.0033574388 0.004629635 0.002667854 4.688782e-05 -0.003681499 -0.0058675795 -0.007703354 -0.0015301089 -0.002427276 0.0066835163 -0.003393126 -0.00368881 -0.0045130127 0.0075433888 0.00018119653 0.004370804 0.0013633857 0.007209529 0.005010535 -0.0003399054
晴天 0.0061124065 0.0049894173 -0.006011346 0.0068388483 -0.0008428301 -0.005225169 0.0012648662 -0.0036653327 0.0071695666 0.006197118 0.0017208147 -0.0012556328 -0.006452243 0.0022707533 0.00054978934 0.0018407841 0.003940584 -0.0006937168 0.0026313504 -0.00080924167 0.0026928564 -0.003462524 -0.003953193 -0.0062858034 0.006370339 0.0058345296 0.00018163514 0.0048834635 0.0024596555 0.0060116607 -0.0057571367 -0.00600163 -0.0022414515 -0.005219955 0.0030013018 0.003372054 -0.0027635233 -0.006534893 -0.005963861 -0.0055667344 -0.0007383825 -0.00028366124 0.0025150154 0.00025558498 -0.0012336526 -0.0029585918 0.0001382991 -0.003179615 0.0019469336 -0.001185911 0.0019201164 0.006779892 -0.001803009 0.0017706718 0.0017794959 0.006629233 -0.0065786364 0.002555471 0.00040283042 0.0059929304 0.006622775 -0.002557445 -0.003236371 -0.0025113106 0.004815681 -0.0042558066 -0.0073836427 0.0052365013 -0.0068012364 0.002195257
看 -0.0011001423 0.0018297355 0.006285879 -0.0043529035 -0.006087178 0.0033804853 0.0005773805 -0.0056351963 -0.0061640525 0.006585347 -0.005584067 -0.0064598615 0.0051435796 0.0005582402 0.0023956166 8.02313e-05 -0.0020812978 -0.0049250214 0.002596173 0.0018762801 -0.0005318947 -0.0065779155 0.0061214613 -0.001367739 -0.0027278173 0.0014815425 -0.0025532679 -0.0073538907 0.0022246628 -0.0034486265 0.0008131143 0.0014898638 0.00075607316 -0.0025690591 -0.006284597 -0.006987429 0.0034045852 -0.0009699335 0.00079717726 0.0020337035 -0.0048031393 -0.0037564621 -0.0034033193 -0.00074134103 -0.0070872447 0.0011968659 0.0018700125 0.0016891351 0.0061082765 0.0049591106 -0.0051794103 -0.006669937 -0.0009791241 -0.0017791196 -0.0063911504 0.0051871673 0.005502396 0.0042707003 0.0051397514 0.00015274016 -3.931337e-05 0.0061487397 0.00660154 0.007332063 0.0022066871 0.001109828 0.0052376627 -0.002093182 -0.0035682453 0.0051164245
景點 0.0051996503 0.0033764353 0.0062786457 -0.005554826 0.0037204921 0.0007312241 -0.0007614829 0.0022822835 -0.0028923848 -0.0035368404 -0.0022327858 0.0029579424 -0.005967832 0.0019885362 0.0015382959 -0.004552803 -0.004424389 -0.0019455346 0.003042288 0.007089334 -0.001035934 -0.00492162 -0.0026960042 -0.0034673254 0.0059166127 -0.004980152 -0.0036370247 -0.0012158327 -0.0037624282 0.0005154858 0.0024539144 0.0046456004 -0.0022442595 -0.0049316953 -0.0058654896 -0.004443967 -0.004375013 0.0049485923 0.0047956025 -0.005751516 -0.002769173 -0.0006146847 -0.005679484 0.0025131255 0.0031382416 -0.004130769 -0.0014384117 -0.0073034973 -0.004416825 0.005669251 0.0038983251 0.0028691122 0.0033684727 -0.0023581863 0.003235987 0.00399699 -0.0003859869 0.0027778866 -0.0020566843 0.0054295687 -0.0021451758 -0.0025515822 -0.0055088056 0.0011248963 0.0015398787 -0.0028568215 -0.0065307687 0.0023751566 -0.0043006167 -0.0013402585
玩 -0.0019549262 0.00059816975 0.001143226 -0.0013924661 0.0036751467 -0.00066812115 0.0046823225 0.0069886716 0.004940323 -0.0007350054 -0.0055597974 0.0034036515 0.007319665 -0.005044131 0.0067892126 -0.0006419498 -0.00046232395 -0.0004098844 0.005699764 -0.0040094955 0.0034612254 -0.0031692705 -0.0020584415 -0.0042096814 -0.0049858913 0.0021954416 0.0037616934 -0.006613958 0.005874245 -0.0066826902 -0.0021605012 -0.006131716 -0.002504449 0.0016718465 0.0041474216 0.0045593665 0.0033603879 -0.0042363307 -0.006915456 0.0009671194 0.0069432873 0.0057865586 0.004387934 -0.005626293 0.00022762651 -0.0043385914 0.0045394027 0.003180003 -0.000536229 -0.004643539 0.003373208 0.0007937669 0.005813005 -0.0056884475 -0.0032773647 0.005862242 -0.0011278891 -0.0022848845 0.00013524614 -0.00085756293 0.0057292012 -0.0039633675 -0.0009098342 0.006384389 -0.002834043 -0.0017919845 -0.00314355 0.0030914508 0.0018914687 0.005184408
好玩 0.0016344598 -0.006751958 -0.005526478 -0.004638987 -0.00094379176 -0.0059680594 0.0066437656 0.0073478874 -0.006686192 -0.0036792185 0.0032366735 0.0043179234 0.0057306252 0.0009108082 0.0049756407 0.0020160687 0.0049058646 0.005897293 0.007612661 0.0035658618 -0.0022787151 0.0013598675 0.0017117086 0.0050506564 0.0044438737 0.0013359714 -0.007144045 -0.0019118903 0.005759312 -0.005106578 -0.0026934156 -0.00021420614 -0.0007919503 0.00091897405 0.0065149525 -0.0054884423 0.0044916663 -0.00061174785 -0.006234242 -0.004245686 0.007851937 0.0005878542 0.0052672084 0.0026538474 0.00040938368 0.005577555 -0.0029771812 -0.0067395344 -0.006018788 0.0014162397 -0.0015545622 0.007380806 -0.0027355892 -0.0060357004 0.0034848289 -0.0031946823 0.004141882 0.003991349 0.0035898297 -0.0005728485 -0.0017061273 -0.0055983653 -0.0026587832 0.0039990777 0.0042179753 -0.007420395 -0.0007488226 -0.0023431198 0.0051008323 0.0031924425
紅毛城 0.0028497197 0.006709522 0.0035475807 -0.0010067804 0.00573249 0.0039608623 0.0005715135 0.003017262 0.0025217663 0.0056934925 0.0039202585 -0.0032291382 0.0071750917 -0.0069525153 -0.004430464 0.0068099224 0.0037903148 0.005080438 -0.005300809 -0.0051097134 -0.0015070725 -0.004134266 0.005013978 -0.004767193 0.0012153755 0.0043541966 -0.0070466436 -0.007704777 -0.002996229 -0.0037526658 0.0027285384 0.0028856986 0.0059629814 -0.0065221633 -0.00066049135 0.00497411 -0.0014210382 0.0015737894 -0.0075676455 0.0030648916 7.761327e-05 0.0039064838 -0.0001717028 -0.00011149552 0.0047667064 0.0017855812 -0.004745095 -0.0013361082 0.0022962047 -0.0047218446 -0.003511569 -0.0011675801 -0.0011919432 0.002240198 -0.00025535355 0.0020557852 -0.0019541306 -0.0047969017 -0.007376823 -0.002566375 0.001802099 0.0033289331 0.00318392 0.0047639357 -0.0062852553 0.0014323364 -0.0024029783 -0.003859149 -0.004154794 -0.0050429483
陽明山 0.006197289 -0.0068883263 -0.0004990874 0.00026988838 0.0027008646 -0.005951213 0.0058566025 -0.0032293862 -0.0026163133 0.0018054787 0.007459678 -0.001924111 0.0050887316 0.0046966593 -0.005888349 -0.00566438 -0.007068312 0.0065546567 0.0026754413 -0.004016962 -0.00577965 0.004356986 0.005005865 -0.0006013052 0.0061546513 0.006282164 -0.0067399777 0.005395102 -0.0040359665 0.005215929 0.0016490931 -0.0032027394 -0.0022541368 -0.00024188925 0.005720319 0.0037738807 -0.0046590343 0.0057009486 -0.004434667 -0.0056915204 0.0028633205 -0.0040286463 -0.0037232798 0.0002098504 -0.0013840565 -0.007215279 0.0009198152 -0.00031518628 0.0016271514 -0.00669516 0.0050554755 -0.0047834944 0.0028913666 -0.00023857977 0.0050737453 0.0048629 0.0056593916 0.0012627069 -0.0073096575 -0.00637223 -0.0072333007 0.00013721391 -0.0015165545 0.0076244776 0.0041541564 0.002505595 -0.002243345 0.0035199204 0.0059316517 -0.00023245488
漁人碼頭 -0.00446046 0.005296569 -0.006856219 -0.003613862 0.004166478 0.0058795866 0.005542394 0.004183039 0.00034369426 -0.0046706917 0.0016363988 -0.004290357 0.0071748346 0.005068401 0.0027923 0.0051128925 -0.0004069651 -0.006276459 -3.951716e-05 -0.0042402404 -0.003217147 -0.00069942645 -0.005477903 0.005073197 0.002218857 0.0059541184 0.0047031227 0.00012851483 -0.0015814414 -0.0067331903 -0.0019550598 -0.004526079 0.00057860883 0.003104994 0.0040598786 -0.0067212717 0.0015463111 0.00500898 -0.0007335732 -0.0058712875 -0.00021441141 0.0025664638 -0.0020425876 -0.0058060815 -0.0016498839 -0.0051145703 -0.0018245658 0.00017907709 -0.0059959725 0.004958582 0.0069346917 -0.0056010727 0.0009915959 0.0064227916 0.0019253454 -0.0053832284 -0.001156751 -0.004053177 -0.0023602594 -0.0018553708 0.0054444433 0.0021402955 -0.005733354 0.0018068273 0.005753608 -0.006588559 0.0057566334 0.0077747125 0.0025259885 0.0023845793
天元宮 -0.004625641 0.002043086 -0.0064498945 -0.0047631175 -0.0039755865 0.006547641 -0.0056473124 0.0042602564 0.0052299607 -0.001077006 -0.006172428 -0.0024145038 -0.0035492177 0.0045803203 0.0030162756 -0.001395723 0.0019448706 0.005349332 0.0054929317 0.005737663 0.0025401192 0.0006386598 -0.005764108 0.0058157453 0.0042850315 -0.0055279355 0.000110907655 -0.0017323153 0.0062431707 0.0065158885 0.004139292 0.0061644386 6.0009508e-05 0.0042124884 0.0006297618 0.0034950287 -0.004902813 -0.0014001741 -0.0036358642 0.0029037944 0.0009260004 0.005673286 -0.0062202634 -0.005705777 -0.0032367306 -0.0054437453 -0.0069941035 -0.005153057 -0.0034190959 0.0044763866 0.0053985105 0.0064728446 -0.0028262446 0.0010065811 0.004344555 -0.0011148277 -0.0045163813 -0.004244753 -0.0030170802 0.005222685 0.0022057989 -0.0052192262 -0.0017380036 0.0007976884 0.0011052025 -0.00439704 0.005481778 0.0057318476 0.005050195 -0.0055664354
情人橋 -0.004289667 0.0064202393 -0.0023001446 0.0006242202 -0.0023672637 0.00238935 -0.0017275502 -0.00241149 -0.0067741848 7.3406954e-05 -0.004336956 -0.0047745933 -0.0018860261 0.00503819 0.0017416463 0.0030233199 -0.0060474677 -0.005067469 -0.0029722592 0.00023181224 0.0037554044 -0.0010529701 0.0028989606 -0.0047677793 -0.0018105021 -0.0024512715 -0.005882162 0.0004983219 0.0067944233 -0.005313252 0.00081782835 0.0055100857 -0.006600765 0.0030155906 0.0015714006 0.0055685844 -0.0013055805 0.0008105324 0.003306716 -0.0026540842 -0.0027373252 -0.003209398 -0.0057342863 -0.0010467528 0.0026481778 -0.0054299003 0.0066327313 -0.0032791307 -0.0006338712 -0.0015541506 -0.0011710251 0.005500451 0.0014782676 -0.0008292423 0.0068352185 -0.0018098489 0.002574333 0.0009326899 0.00091316534 -0.0001752488 -0.0021021003 -0.005234546 0.003758012 -0.0035951044 0.005303137 -0.0010148946 0.0012442656 -0.00072573446 0.006265057 -0.0046816966
關渡宮 0.006044633 -0.0010293425 0.0023812472 -0.006285358 0.0012987308 -0.0003759719 -0.002084723 -0.0029725668 0.0011954668 0.0035145893 0.0063682217 0.0015827667 -0.0011158325 -0.0055818395 -0.0072817486 -0.003405762 -0.0003755789 0.0035744612 0.0059155715 0.0021467034 -0.0019878836 -0.0010659007 -0.0020956337 -0.0028543475 0.006040017 -0.0016479457 0.0056252843 0.003181712 -1.5437647e-05 -0.0039373417 0.001412768 0.0043712463 0.0012325555 -0.0017425235 0.004961539 0.0028651222 0.0073336205 0.0020839393 0.0012410807 -0.0025781766 0.0063384604 -0.0004614371 -0.005168807 -0.0042193006 -0.0075603556 0.0019192917 -0.0029970673 0.006478689 0.0017516067 0.005768882 0.003847198 0.0041348534 0.0047947825 0.0022282752 0.0029765207 -0.0055599012 -0.0025531717 -0.0011628604 0.00033615238 0.0016406904 0.0065441593 0.0018948332 -0.0016536611 -0.005759965 -0.004833092 0.0037520076 -0.003601955 0.0038999664 -0.005795202 -0.0016412798
滬尾礮臺 -0.006840064 -0.00028189842 -0.0052835937 0.0068464004 0.0044718413 0.0063252035 7.7249504e-05 -0.003117777 -0.0032622337 -0.0018573642 0.0034694285 -0.0016221626 0.0031146978 0.003134242 0.001956428 0.0027209755 -0.0002103806 -0.005771084 -0.0047919126 0.0037827028 0.0019055633 0.0066789635 0.0019802356 0.0030747158 0.0024557107 -0.005790232 0.0038806566 -0.0068591754 0.0048801717 -0.004744694 0.0017606965 -0.0027587488 -0.006665323 0.0036898903 0.0027450214 0.0018160344 -0.0067285397 -0.0021896386 0.0031740824 0.0018339843 0.0014263852 0.0008200373 0.0036186192 -0.0070264796 0.0024845712 6.958443e-05 0.004568985 0.0035797118 0.0014722466 0.0021718638 -0.0013496373 -0.0038576976 -0.000990631 0.0008466802 0.004435795 0.006444825 0.0032038798 -0.0017186851 0.0032702428 -0.0038920047 0.0036480653 -0.005969509 -0.0015660078 0.0075994586 0.0018003393 2.8273842e-05 -0.00040167174 -0.0045234864 0.0046042753 0.003890004
一滴水 -0.00717106 0.005515487 -0.004046726 -0.003231187 -0.0039325915 0.0060112188 0.0060500163 -0.0040451135 0.0035540862 -0.0012268419 0.0070438725 0.0023789245 -0.005319653 -0.0061928383 -0.0014285964 -0.00018138441 -0.0031378826 0.0033210444 0.0027502594 0.0014770554 0.007135536 -0.0067247427 -7.746432e-05 -0.0062651583 -0.0033502227 0.002440999 -0.004151431 -0.0053108516 0.0036518783 -0.0051251426 -0.0005629215 -0.003065517 -0.0047027576 0.0040106215 -0.0010670199 -0.004746732 -0.0019281337 -0.0015410293 0.0011409915 -0.005717726 -0.0055364915 0.002389219 0.0013460757 -0.00046865555 -0.0012721895 -0.002819527 -0.0020938662 -0.0017441735 -0.0070812227 0.00018657836 0.0019973903 0.0055709444 0.003223685 -0.0044254567 -0.0012324168 -0.0040903585 0.0020014143 -0.005762577 -0.00026406333 -0.001218139 -0.0051627983 -0.005109726 -0.003310988 0.0074014543 -0.0034600787 -0.0029562342 0.0028408116 0.006896531 -0.0041591343 -0.00041691947
關稅務司官邸 -0.00041781281 -0.005791582 0.0033820292 0.0059893643 -0.00012454452 -0.0008215926 0.0011606363 0.00064190954 0.0017844037 0.0076708547 0.0015515252 -0.0031669617 -0.0031286192 -0.0031023126 0.00061290385 -0.0023603137 -0.004677505 0.00011953289 0.0078616785 -0.0011616846 0.006602681 9.5357245e-05 0.00044743365 -0.0039125574 -0.0005908742 -0.0048535457 -0.006183413 0.0006888049 0.0053896154 -0.003887806 0.002394594 -0.000995464 -0.0020521395 0.0027256228 -0.005190379 0.004221927 -0.006140296 -0.0059609166 -0.0035416628 0.000106165695 -0.003942007 -0.00061407883 -0.0005336887 -0.0058512297 -0.0077780806 0.0018481702 -0.0027250396 0.0007213387 0.00295029 0.0036190795 -0.0051946878 0.003766885 0.0033463328 0.0046663843 -0.00034888127 0.0012635778 -0.0045070057 -0.006656694 0.0029385744 -0.0046568075 -0.00031348824 0.0024730004 -0.006950474 -0.001026173 0.006746195 0.0046825362 0.0005367543 0.0047383863 0.006608732 -0.003689224
淺水灣海濱 -0.0015724135 -0.00014082965 0.0057096225 -0.0027317412 -0.002800327 -0.0009863749 -0.0017312164 -0.0012660627 0.00033386072 0.0052820113 0.0009186561 0.0009002868 0.00024041314 -0.001347632 0.0062392345 -0.004603533 -0.0029496753 -0.0052672112 0.0054158005 0.0033152157 0.003208042 0.0032057595 -0.00085936236 0.003301651 0.0024219442 0.004891033 0.0006716048 0.0038878797 0.004895577 0.0037132946 -0.0070689176 0.005315873 0.005888757 -0.0036058577 -0.0073048724 -0.007212756 0.005696532 7.37417e-05 -0.0030659386 0.0034474481 -0.00014844516 -0.0024762866 -0.0050773257 0.0025479933 0.0020574932 -0.006463354 -0.0075658094 -0.0055904374 0.0057360264 -0.001168743 -0.0040895534 0.0070431945 0.0013980751 -0.00050115085 0.0011781729 -0.0026073877 -0.005712046 -0.004020723 -0.007388105 -0.0032916989 -0.006657723 -0.003734346 -0.006832651 -0.003892477 -0.00033493811 -0.0051796176 -0.00756107 0.0055612633 -0.0006282309 0.00025264706
英商嘉士洋行倉庫 0.0007691269 0.007075878 -0.003991382 -0.0011703203 -0.006628773 -0.0018182583 -0.0039398894 -0.0014706173 0.0054437774 0.005933904 0.0058935145 -0.0015864049 0.000926795 -0.0071121966 0.005840037 0.007038928 -0.0072574727 0.0054181702 0.0075329817 0.0017668419 0.00363076 0.0071232854 0.004204105 -0.0059626894 0.004511533 0.005162528 -0.0018275854 -0.007130383 0.0039669415 0.0031586136 -0.006554797 0.007273908 -0.00043799655 0.0069453977 -0.003177919 0.004540657 -0.0051820897 -0.007145132 0.0021719348 0.0026847473 -0.005056186 0.00035725004 0.0035022178 0.00041781703 -0.0069683464 0.00046118617 -0.0073054805 -0.0018315336 -0.0031797823 0.0049114223 0.0069854124 -0.0043127076 0.0029057425 0.0007741766 -0.001648315 0.0052880263 -0.00063876255 -0.0026966422 -0.0019351838 -0.002987911 0.0066954037 0.0015425151 0.0038382725 0.008110928 0.0050219255 -0.0044563836 0.0018087355 0.004297218 -0.0005742476 0.001219783
情人塔 -0.004762422 -0.0031114486 -0.005248396 -0.005860615 0.0012600925 -0.0014145167 -0.001466168 0.0008214521 0.0051658996 0.005528367 0.005244549 -0.0036482727 0.002157529 0.001060734 0.004959455 0.005855925 0.001549371 0.00071177277 0.0065387557 -0.006006715 0.0012563379 -0.0029256674 0.0057953456 -0.000688985 0.0074175885 0.0049347025 0.00047753978 0.0057288436 0.00072793814 -0.004695359 0.00014788318 0.0017698421 -0.0071684667 -0.0056375707 0.005529232 -8.8551606e-05 0.0018215195 0.003927688 0.0055304784 -0.0009993573 -0.0040290663 0.0036953688 0.003074842 0.0023109817 0.0049092993 -0.0019865825 -0.0060799485 -0.0021454024 -0.004756119 -0.004238317 -0.004770611 -0.003859925 0.0051943613 -0.0014330669 0.0057990737 -0.0058520096 0.005323259 0.002122741 -0.0044775004 -0.0024188333 -0.0014730657 -0.0066439915 -0.00026879593 -0.0016579538 0.0007899074 -0.0028344295 -0.007022883 0.0063174367 0.0035757856 -0.0080874
滬尾櫻花大道 0.00023522062 -0.0035253651 0.0044634347 0.0047252113 -0.0018585916 0.0040098093 0.005901959 -0.0042048167 -0.0068825884 0.002743675 -0.006359605 0.0037762919 0.0063169193 -0.006023847 0.0049512847 0.0018479127 0.001791642 -0.0023110386 -0.0033544318 -0.0016240926 0.0068005566 0.0070239073 -0.0029828115 0.0009629649 -0.0015506956 0.00022499386 -0.0039444584 -0.0013184957 0.006722148 0.004653765 -0.0027137573 0.006202889 0.003928067 0.0043908767 -0.0022938258 -0.0065284674 -0.0006451018 0.0041303528 -0.007921962 -0.002208396 -0.0061710933 0.00043105063 -0.005307271 0.0064201322 -0.0059682718 0.006055259 0.0026510127 -0.0011084895 0.0004467628 -0.002321583 0.0061131273 -0.005219501 0.0003978454 0.0071362094 -0.006404295 -0.006607714 -0.001549618 0.003052923 0.0018830716 -0.0017335272 -0.0013166154 0.0065266285 0.0020418866 0.0014958183 0.0051830714 0.00029364356 -0.00095210184 -0.0049841693 0.0052862093 0.0028899584
雲門 0.00066941563 -0.0039400584 -0.0037511503 -0.00043304742 0.0010884565 -0.007095022 -0.006655131 0.0037537976 -0.006291895 0.0029938922 0.005949448 -0.0014940194 -0.0022245927 0.0006692279 0.0029972983 0.00042699993 -0.004333723 -0.007234254 0.009543355 0.00642926 -0.0028363678 -0.005619643 0.0035472147 -0.0015979495 -0.004357651 0.0044534425 0.0037457382 0.0005722054 0.001024551 -0.004229474 -0.0024686155 0.0026491554 -0.002895818 -0.005287126 -0.00085019984 -0.0027539486 0.0017574099 0.005314741 -0.0028525356 0.002401726 0.0058986545 0.0085071605 0.00677368 -0.0019947237 -0.003099168 -0.0030534058 -0.008089097 1.6525999e-05 -0.00012783988 -0.0020317642 -0.00083048304 0.0073831202 -0.007428752 0.0038255916 0.0065114913 -0.005754567 0.0027433229 -0.0047602006 -0.0060317735 -0.00624032 0.006437577 -0.0063294414 -0.0016854783 0.004041611 -0.0041906293 -0.003080735 0.0031176575 -0.00055858627 0.006957142 -0.006443888
金色水岸 -0.0036033036 0.006407778 0.00515742 0.005315971 0.00086988945 -0.003126797 -0.0070844465 0.007656495 -0.005798647 -0.0003458588 -0.0006082271 0.0015015996 0.0026034808 -0.0009770376 -0.0020029075 0.0023757657 -0.0018373764 0.0064131506 0.0051362384 0.0070084175 0.0045518884 -0.00051129947 0.007070037 0.0010960342 0.006721159 0.0013092794 -0.00296758 -0.006875962 -0.0016946318 -0.008241044 0.0008272754 0.0027777946 0.005316383 0.007353827 0.0016505802 0.00083153724 0.0036489859 0.0013526892 -0.0010073559 0.005471854 0.00021523963 -0.0028096754 -0.005356283 0.006486896 -0.0033778183 -0.006661702 0.0003276268 -0.0072423136 0.0040464965 -0.00021937885 -0.00053159706 -0.002288572 -0.005888301 0.0063864766 0.0038587868 -0.0045045028 -0.0045705666 -0.0060683494 0.004238145 -0.0020675855 -0.0069386126 0.0043367893 -0.006771843 0.005428671 -0.0045967805 0.0036015064 0.0031762482 -0.0028064523 -0.0026490744 -0.003742036
緣道觀音廟 -0.004062236 0.0002696973 -0.00330417 -0.0052551925 0.0042884657 -0.0052300054 0.0033746306 0.0006221936 -0.005840455 -0.0015734481 -0.0049120705 -0.0003232158 0.0021958086 -0.0064274454 -0.0026979083 -0.0043131304 0.004883226 -0.0042538014 0.004918971 -0.0027943132 0.0035608017 0.007408955 0.0022225678 0.0048307213 0.007830763 0.00024434974 0.0028591605 -0.0032066416 -0.0023480183 0.0045223646 0.0023148602 0.0063597225 -0.0012148019 -0.004026385 -0.0047789607 0.0036752908 1.5265861e-05 0.0013698414 -0.00022055746 0.0036007187 0.003861661 0.00086686574 0.004056248 0.0026450255 -0.0025853342 -0.0068706903 0.00040415247 -0.008021797 0.0016579725 -0.0013949674 0.006072549 0.005449083 -0.0066513433 0.0035934409 0.0017215931 0.0038923654 -0.006059289 -0.0077779572 -0.00033860985 -2.934533e-05 0.0061202697 0.0019549096 0.005532818 0.0010924666 -0.001496029 -0.0037755421 -0.0015588879 -0.0053534177 0.0072943526 -0.005195077
滬尾偕醫院 -0.002939381 0.0013751535 0.0019835744 0.0044280016 0.0066352743 -0.000357969 0.001011378 0.0067059854 -0.0037750956 0.004883164 -0.0036318803 -0.0045670774 0.0010517122 -0.0014741144 -0.0052047865 -2.5820442e-05 0.0015915448 -0.0024370837 -0.0011724777 -0.0061283708 0.003422026 -0.0051795044 0.0013132496 -0.002437262 -0.0047247037 0.006542265 0.0066720066 -0.002456141 0.003223614 0.0014625255 0.005835491 0.0047615264 0.0026160402 0.0011466015 -0.0024799954 -0.004681261 0.0015022259 0.00353813 0.0043924875 -0.003949679 -0.002552007 -0.004453419 -0.005555042 -0.0055801016 0.0014048778 0.0059236875 -0.001721697 0.0023167012 -0.004063276 0.0046762526 0.003529703 0.0010753028 0.0021864462 0.0073268665 -0.0047697187 0.004693245 -0.0024377294 0.0064582136 0.0007585092 -0.0071457247 -0.0052009933 -0.0065176883 0.004358409 0.0046494873 0.00019038883 -0.0054541146 -0.0015451442 -0.0054434 -0.0020223493 -0.007509379
多田榮吉故居 0.005094642 0.0022055465 -0.0059337933 0.003537955 -8.10165e-05 0.00013791418 -0.00032237175 0.006730061 0.0064829816 0.00030693732 -0.0013429447 0.0003108691 0.006931383 0.0040964885 -0.001190721 0.0035250192 -0.0063267834 0.0025871366 0.00080290984 0.0070443703 -0.0067632687 0.00532868 0.0073577454 0.0046130945 0.0015772536 -0.0062360093 0.006661012 -0.0072164857 -0.0025201235 -0.0030409321 -0.0041221827 -0.0009557263 -0.0025882518 0.0045385184 0.0020247789 0.0006332647 0.0012806663 -0.004613763 -0.0027329521 -0.0065657734 0.005282086 0.0074572265 -0.0022409104 0.0067672036 -0.005035067 0.00039778205 0.0057894764 0.0041657574 0.0032413516 0.006032159 0.0071966853 0.0033984915 -0.0011537973 -0.0023296748 0.0027753992 -5.9304726e-05 -0.001293505 0.0031186952 -0.0014971006 -0.0053190077 -0.0059741433 -0.007583855 0.00019544264 -0.0041549895 -0.006405067 -0.006425397 -0.0052002743 -0.0046146065 -0.0032471889 -0.0008730504
古蹟博物館 -0.0038746693 0.0003147194 0.0045547406 0.0030393163 -0.0031682206 0.0064178063 0.001120444 0.0027600427 0.00414048 -0.0047659185 -0.0025619885 -0.001918107 0.0025086685 -0.005931229 0.0059411665 0.0015374345 0.006746088 0.0038567334 0.0073903343 0.005793188 -0.0036785356 0.0021140873 0.005495518 0.0012304113 0.0018448399 -0.002459374 0.0035833817 0.0031340846 -0.0039121327 0.0022813797 -0.0054479074 0.002784137 0.0066972887 -0.0037654955 -0.0019137699 -0.007126267 -0.0036779568 -0.00041116527 0.0016658946 0.002194658 -0.0042521167 0.0065988945 -0.0029167715 0.0058463886 -0.0029951006 -0.00042585965 -0.0058897063 -0.0029153756 -0.00292347 0.00055787124 0.0048124855 -0.0009881807 0.006130017 0.0018952232 0.004968505 -0.0025668184 -0.0020313137 -0.00407972 -0.003082527 0.0020170694 -0.0072345673 -0.0039100302 0.002755801 0.0077433866 -0.003912057 -0.002100744 -0.00090861466 -0.00090926304 -0.0026019544 0.0039242436
沙崙海水浴場 0.0057462743 0.0018255849 0.0049101748 0.003206279 0.004327563 -0.0069982507 -0.00079197413 0.0010359994 0.005969398 0.00639718 -0.00029732528 -0.007310105 -0.0059659495 0.0018573693 0.002505419 0.0010858212 -0.00586717 -0.005141542 -0.0035569356 -0.004168027 0.00381259 -0.0021436128 0.0035531055 0.0061078137 0.00038885008 -0.0044827973 0.0029807477 0.005201108 0.0023300077 -0.0013057595 -0.0013623466 0.0011912168 -0.002526192 0.006655404 -0.002719891 -0.0051344475 -0.005832194 -0.0044221175 0.004437968 0.0012340476 0.002997754 0.0071975845 0.006815421 0.00021652388 0.0031715413 -0.005569254 -0.0051002516 -0.0060849353 0.0033922708 0.0022472544 -0.005466014 -0.0064756507 0.0062144487 0.0027032965 0.002338057 -0.0015314673 0.006031572 -0.005096389 0.00068645144 -0.0055144364 0.0015867233 -0.0029862726 0.00444851 0.008341551 0.00078767765 -0.0057868627 -0.004387599 0.0069518974 -0.0061038756 0.0026922699
滬尾藝文休閒園區 -0.0014773429 0.0020336064 0.004525597 0.0029165042 0.0026135826 0.004850851 -0.005750408 -0.0011088524 0.0015772353 0.007970225 -0.0028978914 -0.007197828 0.001468059 0.0025642305 0.0020029007 -0.00584577 -0.0045478363 -0.002801496 0.004011304 0.0032532732 0.0012143366 0.0067540556 0.0027261595 -0.0014752995 0.0047298498 -0.0032053136 -0.004532502 0.00011351597 0.005830833 0.003912803 0.0065743285 -2.4430974e-05 -0.006904994 0.0049094367 -0.0037245725 -0.006405272 -0.00088364084 0.0052455794 0.00095576386 -0.0051129865 0.0037006508 -0.0011271816 -0.006351516 0.0034515555 -0.007343967 0.0050908923 0.00013382391 0.0016224692 -0.0065231044 0.0049949503 -0.0061082416 0.0023689433 -0.006814578 0.0001845067 0.0020714412 0.0040790853 0.0056861164 -0.006710369 -0.0009913122 -0.005063529 0.005822732 0.0062146517 -0.0053276247 -0.0026855785 -0.005335171 0.0009409939 -0.003216964 0.0014040098 -0.0013761236 0.0019099085
清水巖 0.0059401146 0.0033057895 0.005906326 -0.0043830834 -0.00062901794 0.0020309915 0.0046178377 0.0066099144 -0.0028106447 0.0050471337 0.007197919 0.0017760579 -0.001727415 -0.0005942362 -0.00595991 0.005538852 -0.00093337195 0.0056301826 0.0032310584 -0.003697806 -0.0035924043 -0.0056546433 0.0065783923 0.0019529747 0.006676243 -0.0053622294 0.006793506 -0.0072383187 0.0059110015 0.001674678 0.0003235759 0.0021957846 0.0035245814 0.003804954 -0.0050062817 -0.0047790874 -0.00025205297 0.0040637935 0.0046665096 -0.0066071865 -1.9193605e-05 0.0008764009 0.0015704143 -0.0052832025 -0.00737775 -0.0062207254 -0.0010853545 -0.0042624217 -0.0019755668 0.007252886 0.00015028293 0.0031297184 0.0015376634 -0.0022780155 -0.0060355198 0.005847226 0.0044813934 0.0007866602 -0.006559413 0.0060502617 0.001720964 -0.00022787151 0.00393688 -0.002509807 0.00049881515 0.0026339693 0.00329029 0.0066851643 0.00091256015 0.0003072901
龍山寺 -0.0037117698 -0.003844112 0.0047310772 0.0037724834 0.0061168144 0.0028451895 0.0037069742 0.0075830184 0.0009492411 -0.0012152678 0.0013576349 -0.0033777952 0.0078944005 -0.0007988455 -0.006365744 -0.001093702 0.004494939 0.0035339047 0.004338804 -0.0044400147 -0.0058070985 0.006469909 -0.0007635867 0.0056828237 0.0012745012 0.0064856773 0.00254429 -0.0055344147 0.0068359687 -0.004841136 0.0048209103 0.0028356966 0.0031726796 0.0045889188 0.006357877 0.004258957 0.0007875859 -0.00661453 0.004377018 -0.0022455251 0.0047671744 -0.002440084 -0.0022294018 -0.0020918942 0.0024680034 -0.0077086734 -0.0028932428 -0.005071533 -0.0026790928 -0.004020924 -0.006944411 -0.0016474922 -0.0062825647 0.0043305596 -0.00344068 -0.0017686997 -0.0013854902 -0.0023319032 -0.0050221486 -0.0059970687 -0.002048867 -0.0023044809 0.00245071 0.0016569914 0.0033717388 -0.0010195131 0.005759124 0.005781154 0.004688816 0.00237419
紅樹林生態館 -0.0011071721 0.0068942793 0.0038347405 0.0066922186 0.003428418 0.0046939924 -0.0012280669 -0.0064774593 -0.0063884608 0.0057080006 -0.002998071 0.0043014735 0.0055032573 0.003141663 -0.006229731 -0.0058836094 -0.006216961 -0.0018337081 0.0016466297 0.0071615996 -0.0018082086 0.006547444 0.007071817 0.00016812871 0.0012447683 -0.0045548407 -0.0039829565 0.0030654168 0.0068094586 0.005524741 -0.0069476822 -0.0032051082 -0.0030009898 0.0029697162 0.005676057 -0.0040750476 0.0038640948 0.002079795 -0.002516528 -0.0018266677 0.005168412 -0.003853297 -0.002417611 -0.0015333561 -0.0016373406 0.0029212811 -0.0065334053 0.0013187985 -0.0013804559 0.00031771942 -0.00013554741 -0.0052002473 0.0019485969 0.0066667516 0.006542861 -0.0029069798 -0.0033467375 -0.001874682 -0.00094465207 0.0012472516 0.006758093 -0.0066735824 -0.0005874862 0.0016190095 0.0063424567 -0.006664891 -0.0015532755 0.006814273 0.0021443325 0.0008649854
吃 0.0054689306 -0.0008234265 -2.1724542e-05 0.0009193635 -0.0012305608 -0.0059577203 -0.0011341424 -0.0007515657 0.0009726091 0.0012973736 -0.0060648634 0.006068804 0.0024199418 0.0025030044 0.00451172 -0.0017004474 0.0038374993 -0.0067642517 0.0029868209 -0.0022130301 0.0017102191 -0.005347137 -0.0066236136 0.0065557305 -0.002449226 0.003914395 -0.0065093953 0.0017445931 0.0046277097 -0.0048738983 0.0016018815 0.002223787 -9.541846e-05 0.00031554094 -0.006186923 -0.0004011833 -0.00063194946 0.0056112404 -0.003763685 -0.0045921453 0.005252956 -0.0036603832 0.0010540977 0.005652095 -0.0074586933 -0.0049847537 -0.001705766 0.0035774638 0.0030178248 0.006085528 -0.0023721687 0.0039524464 -0.0057422025 -0.006299098 -0.0052644257 -0.0055611907 0.00298132 -0.00022992099 0.0014075381 -0.005011291 0.004309026 0.0022855615 -0.006165925 -0.0030111764 -0.0052769897 -0.004861557 0.00036974062 -0.0030000051 0.0074872207 -0.0027895258
好吃 -0.0062752855 0.0019296339 -0.004218781 -0.003953149 0.004271831 0.007164288 0.005221383 -0.001961128 -0.006036347 -0.0020504976 -5.1480096e-05 -0.0025968722 0.000289306 0.0010217543 -0.00087177765 0.0023493632 0.0029593478 -9.2611925e-05 -0.00040162876 -0.004330141 0.0052518384 0.0061147427 0.00729304 -0.0013769912 -0.0046368698 -0.0038575022 0.001984953 -0.005116203 0.0015813076 -0.0019018695 -0.00074073114 -0.001115018 0.004969676 0.0017564942 -0.001320172 -0.007029967 0.0076674647 0.0060874703 -0.0016002669 -0.0012936092 -0.0049779858 -0.0017802131 -0.006101514 0.0051678754 0.0054497058 0.0027135527 0.004694653 0.004058771 -0.0068007074 -0.0030918792 -0.0065365448 0.0015469389 -3.4137694e-05 0.0019370898 0.0028089262 0.005577357 0.0021015524 -0.0053122737 -0.006380033 -0.0052041435 0.0041381065 -0.0028570604 -0.006661741 0.0042421203 -0.00014601935 -0.0038839006 0.0013021653 -0.0024577668 0.00049757684 0.0028263307
阿給 -7.250357e-05 0.0010923677 0.0020700444 -0.0026726658 -0.0042362623 -0.0025633292 0.0035318274 0.0016006102 -0.0008411469 0.008786691 -0.0007652297 -0.0025556623 -0.0045589674 0.005337801 0.0024905673 -0.0011389495 -0.0061837984 0.0008196666 0.0043197605 0.0039649517 -0.0057534217 -0.0016889457 0.004967595 -0.0015119844 -0.0038629698 -0.0025122508 0.0065289806 -0.004149818 -0.00027875305 0.0035445949 -0.0006742458 -0.0045015304 -0.0015017511 -0.0054129455 -0.00030009836 9.950996e-05 0.0055154925 -0.0043006507 -0.0068747597 -0.0064985547 0.0033390522 0.005916929 0.0013882138 0.0032198199 -0.007013632 -0.007828574 0.0030181454 -0.0025969287 -0.0035873647 0.005756765 -0.003153384 0.0032743597 0.00216508 -0.0014615273 -0.0001232081 0.00050524686 -0.007425211 -0.00086985604 0.0019540603 -0.00014170125 0.004537207 -0.0023101724 -0.0021440948 0.0014347907 -0.0026968487 -0.005125289 -0.00036760478 0.0059294943 0.0062080915 0.0016528341
魚丸 0.0056229653 0.002108342 0.0021062135 -0.0008969299 -0.002065026 0.0039400086 -0.0026181217 0.002382113 0.006442 -0.0042791152 -0.0019680609 -0.005236144 -0.0040954426 0.0002151938 0.0017555677 0.0019601565 -0.004179096 -0.0028446028 -0.000503078 -0.005297437 0.002309334 -0.003090777 0.004577518 0.005556389 0.0028523328 0.001334697 -0.007342867 0.0021302174 0.004360562 -0.0062124045 0.007275734 -0.0053922012 0.0064754467 -0.0006191757 -0.0005269097 -0.005702387 0.0075053405 0.00049791666 -0.0001384631 0.00040155908 0.0046902783 0.00713951 -0.0036469668 -0.0029047013 -0.005566829 -0.0042837965 -0.0012551292 -0.0043358025 0.0031678323 -0.0055219796 -0.002530703 0.002079673 0.0021550984 0.0060107633 0.0034534994 0.002756466 -0.0056038373 -0.000912243 -0.0046974677 -0.0027490961 -0.0041178917 0.005920516 0.0060266685 0.0010333296 0.0019221763 -0.0044191126 -0.0069705024 -0.0014424806 0.0031147157 -0.0073137903
酸梅湯 -0.005684197 -0.006558675 -0.0013423655 -0.0048922473 0.0062358626 -0.004640196 -0.004595647 0.0018852043 -0.0015575286 0.007947351 -0.002783559 -0.0012995206 -0.0029392254 -0.0018387376 0.0021919766 -0.00016063952 0.0042269165 0.0066130203 -0.0020765655 -0.0046420633 0.0037870852 0.0011796119 0.0010998886 -0.00052926637 0.0064730765 0.006739594 -0.00017629028 0.0065123565 0.0019695691 0.0031228983 0.004539611 -0.0006216883 -0.007212009 -0.00015762741 -0.003030793 -0.007619513 0.0039105 0.00022850616 -0.007322466 -0.0053576245 -0.002184332 -0.0028811248 -0.0012229137 0.0055622263 0.0049070385 0.0063441517 -0.004751073 0.0015962619 0.0059651462 0.002588018 -0.006425448 0.005737303 0.0029043586 -0.0019468073 0.0017218855 0.0017268225 -0.0069064274 0.0051696026 -0.0003567201 -0.0061387243 0.006026796 0.0012146643 0.0059367963 0.001316895 -0.005754826 0.002287189 0.006320692 0.007090216 -0.0036512262 0.00086177734
胡椒餅 -0.0042761066 2.6470629e-05 0.00528374 -0.0031079338 0.0061083296 0.0036941783 -0.006972063 -0.0039378055 0.0018259553 -0.004594316 -0.0020696628 -6.376679e-05 0.0025452934 -0.00596895 0.0012813476 0.005035235 -0.007118126 0.0042414824 -0.0025352356 -0.0057064644 -0.005817125 0.003234763 -0.0046847602 -5.4892374e-05 0.001354331 0.0037170828 0.0013221027 -0.0015985528 -0.0016069822 -0.007540341 0.0047398657 -0.003862903 0.0048670154 0.0029417204 -0.005371714 -0.0037763524 -0.0032122054 0.006056762 -0.0064400765 0.0011824059 0.0041307937 -0.00477506 0.0034079766 -0.005089116 -0.0035185404 0.0032792187 -0.004371093 0.0041532503 -0.005524205 -0.0021675345 -0.006788114 0.00692902 0.004447195 0.002474101 -0.00086696644 -0.002393236 -0.006877251 -6.1374216e-05 0.0045511955 0.0049298 -0.007241139 -0.005997866 0.0007509075 0.00046026785 0.0022292852 0.0026052268 0.0010819483 0.0044842768 -0.003347093 -0.006760171
蝦捲 -0.0020757895 -0.0020820436 -0.006196349 0.0010369178 -0.005898916 -0.006998121 -0.0037577061 0.00017279468 0.005905163 0.00814152 0.0048092245 6.122231e-05 0.0009470576 -0.0024364414 -0.006688566 0.0013598298 -0.0015710804 -0.0036516155 0.0009506102 0.006601226 0.0070220134 -0.0007380133 -0.005040069 0.00029629486 -0.0022816723 0.0038982232 0.004744515 -0.00065276114 -0.004033366 0.0044089505 0.0060621626 0.0032557142 -0.0069843233 0.004163495 -0.002822468 0.0046655494 -0.0036293874 -0.0073732664 -0.00044957822 -0.0063399374 -0.0049115033 0.005797209 -0.0007793024 -0.00492226 0.0006322644 0.004606919 -0.0035454794 -0.003783676 0.0042393715 0.0029182627 -0.0033749149 0.0056186155 -0.0038424865 -4.743905e-05 -0.0017564107 0.007462624 -0.0020391275 -0.0066204574 0.005510958 -0.0034733778 0.006122237 -0.002299715 -0.0010561196 0.0072878837 -0.005080397 -0.008773536 0.003650283 0.0040301513 -0.006159763 0.0020620152
鳥蛋 -0.0024482233 -0.0012359488 0.0066387276 -0.0045715836 -0.0067863455 -0.006598346 -0.0009822403 0.0043822643 0.0031557477 -0.0018195163 0.0048883595 -0.0005195164 -0.00096865627 -0.0025658747 0.0015009968 -0.0001778049 0.0060494575 0.0040524243 0.008753547 0.0019506322 -0.0048006345 0.00482128 -0.0003571032 -0.0024073184 0.0041270596 0.0017294798 -0.0015966812 -0.0018249287 0.0063602105 -0.008174785 -0.0017601536 0.0060598324 -0.006460693 -0.0048618163 0.0045939893 -0.006159832 0.0006719986 -0.004026034 0.0004031687 -0.0071041244 -0.0046233325 0.0045088516 0.0018119945 0.0028055946 -0.008084386 0.004665108 -0.002134543 -0.0023988842 0.0006334383 -0.00431582 0.0016562041 -0.0036904654 -0.0076678586 -0.0012005462 0.004340819 0.0047495295 0.00048714998 0.0030309425 0.0025830504 -0.00471768 0.0025574528 -0.005146071 -0.0021807274 0.008083336 0.0043486776 -0.0042997724 0.0016152306 0.0011097738 -0.00074003957 -0.006854641
魚酥 0.0039879256 -0.005870724 -0.0006727369 0.0057763215 0.0025036803 -0.005201698 0.0038372925 0.0059376406 -0.006394179 -0.0011410371 0.0047093607 -0.0053735273 -0.0005842735 -0.00499915 0.0015270372 0.000962398 -0.0017236973 0.0030209224 0.0012621847 0.001155529 -0.00045800165 0.004541398 -0.0048831934 0.0018300301 0.0019230642 0.005807249 0.0024350435 -0.0011139906 7.06602e-05 -0.002664911 0.0041888845 -0.004699228 0.00023111883 0.004145431 0.0048824647 0.00030836815 0.006046956 0.005201071 0.003007863 0.005226094 0.0038802754 0.009201838 0.002763391 -0.0050360234 -0.00778195 0.003307479 0.0025508895 -0.006470966 -0.0031842338 0.0065308334 -0.004303844 -2.603765e-07 -0.005914577 0.0051395227 0.0053259544 -0.002809191 -0.007874955 0.0034612978 0.0010014815 -0.0003761898 -0.0026985074 0.005051278 -0.0077881766 0.0055892877 0.0017474698 -0.00023747544 0.0052036433 -0.0032479744 -0.0039902087 -0.008863224
鐵蛋 0.0037200816 -0.0016715744 0.0024927547 -0.0063590105 -0.00012236582 0.0033834113 -0.00019929827 0.0064650537 0.0011336883 0.0030637723 0.0028062211 -0.0049111275 -0.0038863602 -0.0012345088 -0.0015215947 0.0043234755 0.0035497611 0.0051949956 0.0077748788 0.0033961055 0.0018019009 0.00376313 0.006733591 -0.0015274131 0.0069277743 -0.0007760472 0.005591145 -0.0028550725 -0.0006971952 0.0053936495 -0.0009140753 0.002484742 -0.003441067 -0.0052340846 0.0004507293 -0.00045415646 -0.005393876 -0.0070404303 -0.0071389913 -0.006072518 0.0017320184 0.007034086 -0.0022683 -0.0048625474 -0.007924798 0.006155955 -0.0014235988 0.0032383741 -0.005179842 -0.0019510572 -7.937026e-05 -0.0061377995 -0.005917101 -0.0023553502 0.0014087536 0.005324084 -0.0070588146 0.0022926312 0.002667503 0.0050731506 -0.0059903427 -0.004757124 -0.001425519 0.006373511 0.0013902562 0.0040931464 0.0016023873 0.00093340524 0.0036899364 -0.005992951
咖啡 0.0061169122 0.005772405 -0.006305089 -0.0006584258 -0.0022674403 0.006621143 0.0018209051 0.0062502637 0.007190215 -0.002817499 -0.00049059733 -0.0021808494 0.0026530358 -0.0046374677 -0.0057053957 -0.0062881275 -0.004486894 -0.0015490839 0.006955706 0.0060640587 -0.006806953 -0.0026361297 0.0021149653 0.0019812493 0.0010297768 0.0058367117 0.005992792 -0.00050776097 0.0012759701 0.0011129628 0.0054185814 0.005188523 -0.00020668832 0.00082967035 -0.0009400605 0.0034166484 0.0050103897 0.0042091883 -0.0003783476 0.0045708832 -0.0004461782 0.007712681 0.004951461 0.0005364346 -0.0008192657 -0.006878485 0.0056754737 0.004448216 -0.0019285721 0.0034935358 -0.0036072866 -0.0010265528 0.001735599 -0.003993633 -0.0043428633 -0.0035174703 -0.0072878953 -0.0059238058 1.2525519e-05 0.004509187 0.00075151096 -0.005848675 -0.0028156731 0.00024653034 0.0036598146 -0.008392064 0.0010614204 -0.0014375944 0.00031828633 -0.0069416407
喝咖啡 -0.0025143435 -0.0029808972 0.0043613487 -0.0014286968 -0.0006735836 0.0066287927 -0.006356789 0.008175171 0.0043608164 -0.00416668 0.0046839463 -0.0013582725 0.0011487093 0.00061667094 -0.00087971374 -0.0066583953 -0.0071379794 0.0053056655 0.0006900237 0.006824869 0.004084952 -0.0053383573 0.0006228469 0.0006596386 -0.00075649045 0.0071259537 -5.8165206e-05 -0.0062975795 -0.0021899096 -0.00062597235 0.0058619236 -0.0061286613 0.00247989 -0.004489493 0.00012832572 -0.005411013 0.0069154976 0.0028911997 -0.0023141447 0.0056336117 0.004204606 -0.0021290102 -0.001683846 0.005742051 -0.0032344342 0.0023083016 0.004673547 -0.001161335 -0.006332265 -0.0041795224 0.0043422636 0.0021915392 -0.0063934512 0.004952974 -0.0032676298 0.0046544913 -0.0006406186 -0.0033161156 -0.0018162121 0.0042245905 -0.0023202985 0.0016930193 0.00172828 -0.001170058 0.006692362 -0.00011014749 0.004331784 0.007420975 -0.004489211 -0.0071665207
波羅旺 -0.004616207 0.0014984277 0.007483747 -0.0022934086 -0.002586242 0.0009811898 0.0009649466 0.0025464871 0.0015675453 0.0069112214 -0.003339774 0.005969746 0.0036252718 0.00655354 0.005557779 -0.0016726 0.003753147 -0.0062869233 -0.003388722 -0.0009790435 -0.0048800884 0.00015431078 -0.0017990744 -0.0034706723 1.23814425e-05 -0.00088103005 -0.005648305 -0.0040692897 -0.0026374885 0.0035934122 0.0012916818 0.006068512 -0.0011625089 0.0054693646 -0.004028655 0.0019145058 0.002517114 -0.0033880728 -0.0060613956 -0.0050250534 0.007602328 -0.0017735333 0.00065151765 -0.006118756 -0.005420862 -0.0038488815 -0.008165314 -0.004207909 0.0008026904 0.003116128 0.0058627883 0.000808825 -0.0013060012 0.0075341538 0.006113014 -0.0058942586 0.0017785372 0.002944711 -0.00575533 -0.0009570616 -0.001823697 -0.0030726702 -0.0076029524 0.0027572992 0.0027791793 -0.0054539545 -0.0073020062 -0.0037134797 0.0040291767 0.0028368735
臭豆腐 -0.001683285 0.0070409724 -0.00024084756 0.0045012506 0.0033142157 0.003768574 0.005220973 0.0049922112 -0.003257569 0.002139321 0.003369752 0.005867037 0.006128393 0.0029195896 -0.0004889528 -0.0036493954 -0.0031276615 -0.0062918654 0.007110882 0.007062456 0.0025455419 0.0066038463 0.000328567 -0.006718985 0.0026168702 -0.005505286 -0.006189847 -0.0017568734 0.00018873974 0.005259633 0.0035563596 -0.0052498165 0.0032908218 -0.00381767 -9.620909e-05 0.0040384936 0.007601373 -0.0070819636 0.0035808024 0.005700834 0.002162982 0.0013179337 0.0033818295 -0.0067396644 -0.0017837208 0.0047042556 0.0038236936 0.00073039386 -0.00031338166 -0.0027593141 -0.006238106 -0.0037357628 -0.00352417 -0.0030688401 -0.0026875574 -0.0038160554 -0.007267216 -0.0012102714 -0.0026727594 -0.006900557 0.0019304124 0.004231157 0.00020999505 -0.0030395545 0.0038511448 -0.0063619753 -0.0048021027 0.0080295745 -0.00051909353 -0.008661948
紅豆餅 0.005461407 -0.0037571215 0.004300255 -0.00017109342 -0.0037842025 0.003100567 0.003889277 0.0063641164 -0.00088225905 -0.0025180376 0.006287231 -0.00094718265 -0.0039803386 0.0018470468 -0.0072179497 -0.0020908278 0.004160722 0.0036011848 0.006223713 0.0014799099 -0.0044806455 0.0041518053 0.005912482 0.0056112716 -0.0010498839 -0.00083082204 -0.0009088746 0.0044588465 -0.006208109 -0.0031706 -0.002734407 0.004892606 -0.002026285 0.0057417983 0.0046431855 -0.0059044394 0.006221896 0.0020582331 -0.0013521526 -0.0055065374 0.0018861347 -0.0040832097 0.0027798135 0.0065346635 -0.005856664 -0.0043858034 0.0015959025 -0.00087298546 0.0047600307 -0.0029121465 0.0063613984 0.00588256 0.00071639474 0.0030134753 -0.00601223 0.0072042565 -0.006751876 -0.0065403385 -7.522991e-05 -0.0008404078 -0.00079846365 0.0022893322 -0.0046599386 0.0026126925 0.0013283821 0.0004737217 -0.005734443 -0.003460767 0.0023564938 -0.0038480228
果汁 -0.0020376055 -0.00173598 0.004492162 -0.004037251 -0.003294822 0.0034426448 -0.0067376457 0.002228694 -0.0028559978 0.008028449 0.006886012 -0.003471182 -0.0026100124 -0.007239811 -0.0018820026 -0.00094487175 0.0048253434 0.00048542814 0.00456664 -0.0036758226 0.0028021915 0.001064892 -0.000432625 -5.3317817e-05 -0.00026735757 -0.00050788966 0.000184347 -0.0047546593 0.0038825828 0.005391443 -0.00166708 -0.00025310222 0.0009730789 -0.004642904 -0.00029816813 -0.0009520454 -0.0028521519 -0.0053883786 -0.0038692532 0.002942482 0.0012788287 0.0020038595 0.0014704014 -0.000623222 0.0047018887 0.0020508303 -0.0018841665 0.0041256887 0.004828525 -0.0026789964 0.0047589275 -0.0043388274 0.003558136 0.0049301866 0.00419593 0.005771814 0.005745247 0.005228828 0.0027270273 0.0049129864 -0.0040968014 0.0033636098 -0.0054918122 0.008834391 0.00018796783 -0.004070418 0.002019367 -0.00446736 -0.0056282384 -0.006521064
冰淇淋 -0.0020124386 -0.0038348963 0.005311803 0.006380983 -0.0039247656 0.0072445483 -0.007451672 0.0027496621 0.0045103054 -0.0008734311 0.001202405 0.0010432759 -0.00069271977 -0.0014301351 0.0043370808 0.0031781578 -0.001918236 -0.004990715 -0.0016785982 0.0055978056 0.0058490275 0.00069875957 0.004361093 0.0024857721 0.0049335198 0.0031202473 0.005345437 0.0022069647 -0.004464782 0.0031179108 0.002500588 0.0070151524 0.0050993804 -0.0066327318 -0.0036814995 0.004709122 -0.004577499 -0.0072036404 -0.00014849564 -0.0033780367 -0.0011211843 -0.0023943165 0.0016739458 0.005629886 -0.001077808 -0.006047517 0.0038608357 -0.008318421 -0.005483297 0.00581368 -0.0043612057 -0.0025164504 -0.0044922545 -0.0007663176 -0.002654328 -0.005488692 -0.0020205071 0.0012385363 0.004934846 0.004490954 0.00056681916 0.00312226 0.0018815589 0.008647996 0.0027964816 -0.0077060834 -0.0065471833 -0.0028158792 0.0034873367 0.0017894658
古早味蛋糕 0.005222576 0.0026330752 -0.006296019 0.003537723 0.002794449 -0.0041209194 -0.001803892 0.0059470884 0.0020877786 0.007251068 0.0011245407 0.00197154 0.0031730037 0.0030836249 -0.006222207 0.0013097548 0.0013993401 -0.003871827 0.0025919375 0.0039324043 -0.0027269376 0.0020066365 -0.0028000977 -0.0010496315 0.008049624 0.0043209135 -0.0028147667 -0.0061236173 -0.0010722482 -0.004761292 -0.0063961754 -0.00047539143 0.0008893996 -0.0037652615 0.003463038 -0.005478202 0.004319025 0.0038233537 -0.00075583515 -0.0058349515 0.007901986 0.0040930863 -0.002850025 -0.004812335 0.00488168 -0.0020412852 0.0027109026 0.0022501915 -0.0037304794 -0.0065266346 0.001968996 -0.0039499532 -0.004809894 0.0030869124 -0.0037986748 0.0027666125 0.0026435675 -0.006507604 -0.006864488 -0.005419 0.0037182418 -0.0046546687 -0.004272285 0.0006383095 0.005682365 -0.0023069773 -0.0029031893 0.0053296285 -0.0013917024 -0.0008701665
腸粉 0.0003555758 -0.0043275687 -0.0036244912 -0.002448577 -0.006852871 -0.003671755 -0.007573389 0.0027151774 0.002728045 0.0066934526 0.0036614025 -0.005134874 0.007890492 0.0055362126 -0.00661326 -0.0063909013 -0.0020941892 -0.004820963 0.0026500465 0.008017886 0.005038466 0.007439944 -0.0035647412 0.0020318914 0.0014328156 0.0010786371 -0.00037119363 0.0023780111 0.0052850563 -0.005277795 -0.004234247 0.00031488368 -0.0068590636 -0.0029029355 0.0046507944 -0.0057525327 0.006216534 0.002237708 -0.005659231 -0.0068709613 0.006633408 0.00876917 -0.001404434 0.005160581 0.0050499607 -0.0076225265 -0.0012291148 -0.0067693903 0.0019793506 0.0025482054 -0.0038238913 0.0027431352 -0.0067459205 -0.0034819236 -0.0005993136 0.0006637192 -0.0042065997 -0.0008427221 -0.00049077824 -0.0017728695 -0.0023944085 0.0057038753 -0.007989592 -0.0001411126 0.0030552598 0.0008571512 -0.0014747992 0.006260302 -0.00200502 -0.0032521035
麵攤 -0.0002295541 -0.0029434455 0.0033314773 -0.0020757944 -0.0032166995 0.0030277926 0.0034015672 0.006210467 0.0047615236 0.006596986 0.0037892135 0.0034760316 0.0025629173 0.0043645627 -0.0073766983 0.0024637226 -0.004151706 -0.0033466043 0.007696975 -0.0036690235 -0.006438171 0.0049464963 -0.006088033 -0.005263786 -0.005009581 0.0034770917 0.00670106 -0.0011518021 0.0043894565 -0.008128424 0.00032624436 -0.004424527 -0.005285228 0.00070895243 0.005660777 -0.0078014005 0.007071576 -0.007721898 -0.0051398617 -0.0033088538 -0.0039296923 0.001201886 -0.0014936745 -0.0016217023 -0.002816176 -0.0060850526 0.004806835 -0.0078266775 -0.005019106 -0.0038621128 0.005961651 0.005379458 -0.0077087176 -0.003595962 -0.0002652585 -0.0017749069 -0.003463634 -0.004529271 -0.0037587446 0.0039641983 -0.0020237062 -0.00081793667 -0.0044039544 0.0064634127 -0.002799937 -0.0019203346 -0.0036197207 0.0068115545 -0.0037719097 -0.00143367
好喝 0.0041680355 -0.0011084139 0.00642752 0.003622327 -0.0050198026 0.0049322443 0.0019295785 0.004936615 -0.0016842714 0.0024903927 0.0004627816 0.005515624 0.0069254464 0.0020488857 -0.0005023695 -0.005709158 -0.005851193 0.0020892648 0.0055916305 0.0034781783 0.002004542 0.004574511 0.0012206452 0.0017250906 0.0043700435 0.0067613414 0.004029703 -0.001241266 -0.0033660561 -0.00014917526 0.0032207354 -0.0063303383 -0.0006087214 -0.002263891 0.003008256 -0.004384932 -0.0057004965 -0.0038065824 0.0020676164 -0.0024765825 0.0046698665 0.007402234 -0.0012530726 0.002410769 -0.0035878473 -0.0049408753 -0.006434263 -0.006114454 0.0031689554 0.0027724123 0.0012022334 -0.0058313324 0.003381027 0.0008330011 -0.006870427 0.004848132 0.0058202273 -0.002931134 -0.0008519477 0.0063929386 -0.0052738693 -0.0006051297 0.0046697273 -0.0039414014 -0.00553587 -0.0034735936 -0.004498746 -0.00095376023 0.001521361 -0.00032186825
喝 0.00599327 0.005693013 -0.0038510524 0.0028076868 0.0013845003 0.0040518446 -0.004482776 0.0024331966 -0.001097647 -0.0034945542 -0.0020685997 0.0052095996 -0.0059368187 -0.005643897 -0.0001841466 -0.005825922 -0.0018952232 0.0055004694 0.006122704 -0.000102470556 -0.001714474 -0.0031211025 0.0064621815 -0.0021799873 0.004220706 -0.0026738602 -0.0043904944 -0.0021485994 0.0017120355 -0.0057901335 -0.006820547 -0.0025486064 0.0051856926 -0.006499855 0.0024328004 -0.0021783018 -0.0010715617 -0.0021160438 -0.0029311543 0.0043801176 0.0042790608 -0.004577368 0.0013210159 -0.0024662863 -0.006272211 0.0038245046 0.0056206593 0.004023217 0.0012106383 -0.0020850704 -0.0036030416 0.00062507286 0.0023188915 -0.0062481756 0.0017348576 -0.003266196 0.0057865954 -0.0058872057 -1.3983641e-05 -0.00026615785 -0.0064354874 -0.0014936188 -0.0057128947 0.007973779 0.006610037 0.0014826253 0.0005260659 -0.004034709 -0.0058874385 -0.006001367
住 0.0025736687 0.007396983 -0.0015403129 -0.0011859804 -0.0020320653 0.003944161 0.0059548435 -0.00398097 -0.003238999 0.008074307 0.00735821 -0.00420224 -0.0037940096 -0.0027930487 -0.005952337 0.0029428138 0.0058359755 0.0011047929 0.008955358 0.004220399 0.002112294 -0.00021892741 0.0034908226 0.0033232132 0.006506814 -0.0025513142 -0.0075813215 -0.008537394 0.004090476 -0.0035209956 0.0007971721 7.644927e-05 -0.0008603432 0.0012292762 -0.0068580476 -0.0017928783 0.0057779136 -0.0042464617 -0.0028317226 -0.007384314 0.0030135007 0.0028385287 -0.004339865 0.0004544852 -0.0022572267 -0.0069693425 -0.0002319014 -0.00089204835 -0.0051616025 -0.004865203 0.00089618075 0.0038338993 -0.0085908035 0.0059298123 -0.0017257606 -0.0019682532 -0.0032933585 -0.0077693616 -0.0013980767 0.001189895 -0.0040326286 -0.0026855876 -0.008144718 0.009667566 -0.0026555818 -0.0064177015 -0.0016770512 -0.0019986515 0.006003824 -0.007053022
住宿 -0.0018662013 -0.005649789 -0.005443825 0.003796106 0.0053369934 0.00044148357 0.0046993704 0.0017708516 -0.00047059578 -0.0051433994 0.007782014 -0.004328715 0.005882655 0.0040761335 -0.004186143 -0.0010139948 0.0001921139 -0.0047528744 0.0051635667 0.0063634757 -0.003969633 -0.0011763463 0.0021879873 0.0054158247 -0.0035372144 0.0024873787 -0.0043367743 -0.002886041 -0.0033672352 -0.004023578 0.0022817117 -0.00034890664 0.005714936 9.150634e-05 0.0055096783 0.005075817 0.0007833734 -0.0072242287 -0.0065897903 0.0046420703 0.0032668025 0.0005212826 -0.005442141 -0.0009852392 -0.001406355 0.0035664446 -0.0042426814 0.003947347 -0.004762149 0.0057678297 -0.0017825041 0.0045480467 -0.00842398 0.006757777 0.006504492 -0.0054182773 0.003975618 -0.006932794 0.0038541711 -0.0011513842 -0.005402481 -0.003221729 0.0050516697 -0.0038231916 0.0031603246 -0.0019617972 0.0043584136 0.002759064 0.0043240734 -0.007450495
過夜 0.006686257 -0.0026117084 -0.001967426 0.0039393343 0.0053246547 -0.003797127 0.004618959 0.0018051498 -0.002843947 0.000947534 -0.002317813 -0.0077378135 -0.0037752928 0.00034977126 -0.0006252249 0.0046239076 -0.0038944392 -0.005292489 -0.003960499 0.0044417335 -0.00046524673 0.0048934035 -0.0037221208 0.005028004 -0.00017155067 0.0038131264 -0.0065097213 -0.0034293795 0.0063155335 -0.006442034 0.0051366203 0.0033978084 0.0064776046 -0.005087156 -0.0026656063 0.0056599136 0.007083839 -0.0041062036 -0.0012882142 0.000560051 0.0055684047 0.0060475236 -0.0038073184 -0.0023506875 0.00082541205 0.006349095 -0.0005105608 0.0017955818 -0.00026071366 0.0014622905 -0.0032806778 -0.0023667298 -0.0038457422 -0.0022454907 0.0012801419 -0.002101528 -0.0040039537 0.00331352 -0.0056012273 -0.003533057 -0.003919259 0.0037399654 -0.0025849417 -0.002649676 -0.0020738859 -0.0070775775 -0.0029554584 -0.005443767 -0.0064014234 -0.0075980145
民宿 -0.005396523 -0.00451957 -0.0016697032 -0.0026998655 -0.005708344 0.000518407 0.0056913234 0.007991122 0.0014820063 0.0023501758 -0.0040161265 -0.0047087357 0.0047602085 0.0021331657 -0.0034659952 -0.0067153606 -0.0058532846 0.004615789 0.007981367 -0.0046203043 -0.0026270794 0.0042921784 0.0061381715 0.005858872 0.00010486271 0.0032279976 0.002301159 -0.006413801 -0.0051786243 0.00028366168 0.002016155 0.005037661 -0.001848157 0.0026160092 -0.0047771013 -0.007070705 0.0064242 0.0040217806 0.0005560009 -0.0024282876 -0.002120773 -0.0051063336 0.0027473567 -0.0068061706 0.0031366458 0.0022747936 -0.003832402 0.005725702 -0.001202313 -0.0032405362 0.0020678586 -0.0007993809 -0.002415148 -0.00041904172 -0.006279145 0.0031286369 0.00066873804 0.005082106 -0.0072971066 -0.00621526 -0.006580875 -0.002250111 0.006402371 -0.00398047 0.0023670052 0.0031197022 0.0058989697 0.006264714 0.0026558938 -0.0037686797
旅館 -0.0056413338 -0.0015693953 -0.00259291 -0.0014719956 0.0021102508 0.004597183 -0.0052686455 0.00681248 -0.0031267689 0.0062167626 -0.0046396493 0.0047197817 0.007043207 0.004087317 -0.005668068 0.0010558676 0.005064197 -0.0052756914 -0.003213314 -0.0053217667 0.0009866997 0.0026495957 -0.0026600899 0.0009821695 -0.005459081 -0.0022510153 0.0053691827 0.005546745 0.0020833255 -6.1674786e-05 0.0024354963 -0.006133932 -0.0043791686 -0.0024029505 -0.0002941155 0.0011664259 -0.0015489302 -0.007820543 -0.0024629037 -0.0016923266 -0.003628549 0.0012578163 0.0065126834 0.005220159 -0.0051025003 0.0002838446 -0.0057118926 -0.0029762234 -0.0052196267 -0.0033267667 0.0018979704 0.007061658 0.002775226 0.002255675 -0.006006372 0.0015605191 -0.0017056502 -0.0041497247 -0.0068732817 -0.0032803891 0.0021324567 0.005985978 0.00048086586 -0.0009681703 0.0065664095 -0.0077092038 -0.007240361 0.002181314 -0.0031817602 -0.007819581
飯店 -0.0062666396 -0.005255801 -0.004865837 -0.0056054373 -0.0034954038 0.0035049997 -0.0056040687 0.000994947 -0.0002507664 0.0027512887 -0.004832467 -0.006989079 -0.0031912052 -0.00055768533 -0.00085541344 0.0026512498 -0.004695216 -0.003309374 0.0039779013 -0.0063662585 -0.000591903 0.0073861177 0.00033721898 -0.0062074065 0.0027493208 0.006277889 -0.005164772 0.0041016475 -0.0005342717 -0.0059670745 -0.0012919931 0.0017855774 -0.0007460872 -0.0010963226 -0.004754276 -0.007396307 -0.0010353718 -0.000841773 -0.0071050427 -0.003092198 0.0038122595 0.0075936806 -0.0040066307 0.0025814287 -0.007437604 -0.0036723178 -0.007026638 0.002190569 -0.0036428098 -0.0017848714 -0.005081529 -0.00079682225 0.002737046 0.005499186 0.0071122553 0.0008063927 0.002832209 -0.007073039 0.0037018221 -0.0055924105 -0.0026457063 0.0010759182 0.0013130129 -0.002284673 -2.9948209e-05 -0.0033277264 0.0029844337 -0.005617049 0.0045902445 -0.007022823
hotel 0.002357603 -0.0039756726 -0.0038137978 -0.0045969975 0.0039834604 0.0033848232 0.0040819924 -0.0014685538 0.0053598136 0.002092223 -0.0048288335 -0.0005252243 0.00500154 0.0054363906 -0.00088839495 -0.0052695386 0.003442376 -0.004756721 0.008277736 -0.004442993 0.0021940635 0.00775093 0.0045073885 -0.005594259 -0.003751142 -0.006253365 0.0007759314 0.0011020947 -0.004274138 -0.0059386715 -0.0067505604 0.004924033 0.0035497188 -0.0049276273 -0.0025585652 0.0052151657 0.004217604 -0.007537174 6.2436804e-05 0.0054287408 -0.002009183 0.0059295353 0.005783983 0.0009698814 0.0038149718 -0.005669143 -0.004333438 0.0030381351 -0.0028750596 -0.00043630955 -0.0068292175 0.0024049422 0.004504133 0.00010235391 0.0034476174 0.00084065384 -0.00090258743 0.0029395681 -0.006736545 0.006463418 -0.00016579045 -0.0026626238 0.0016523992 0.00090138335 0.007229457 0.0035775446 0.0062044966 0.0023739468 -0.0031762011 0.0055055916
交通 0.00022417623 0.0058942935 -0.0030858975 0.0038824566 -0.00041256912 -0.0027316438 0.0036254444 0.004279705 0.0018235795 -0.0027768346 -0.0006452854 0.0058626896 0.0050940327 0.0057284865 0.002243385 0.006200048 -0.004306863 -0.0005540583 0.0012638196 -0.0026611201 -0.0068031377 0.004125793 0.0075207185 -0.005531814 -0.00039799488 0.0053446935 -0.0020183073 0.0031907763 -0.0019145303 -0.0066990918 0.0049126577 -0.0032294227 0.004523935 -0.0012482736 0.00046975908 -0.0025453912 0.0032831666 0.004405866 -0.0043327473 0.0044581536 0.005863862 0.0020906355 -0.0012798446 0.0019978457 -0.0050675133 -0.0021334821 0.005251744 0.00040273237 -0.0003994888 0.0060322974 0.002575575 -0.00036940127 0.00072070793 -0.004000407 -0.0010380998 0.005872191 0.0036163095 -0.00038713138 -0.005416303 1.14188715e-05 -0.0056340694 -0.0026476355 0.0040611336 0.008545416 0.0004037284 0.0027065673 -0.0027500251 -0.0018016784 0.0034816933 0.00071736093
公車站 -0.005415739 -0.0033708478 0.0020303354 0.006086888 0.0044493326 -0.00032502404 0.0035585298 0.0069954507 -0.006467988 0.003583678 0.007082642 -0.005759823 -0.0054697916 -0.007191074 -0.0013897236 -0.006545877 0.0037849566 0.0010410979 0.0069188923 -0.005341299 0.007154066 -0.0017599848 0.0016752197 9.204817e-05 0.0065807207 0.0038739243 -0.00025456495 -0.0061191614 -0.0048110485 -0.0044626812 -0.0002661862 -0.0050708945 -0.0061773127 0.003143931 -0.0021464766 0.0022440983 0.007470586 0.0015701166 0.0018950561 -0.0052391454 -0.004341156 -0.0038753494 -0.0057850517 0.0011631461 0.005759265 -0.004567988 0.0016890584 0.0006813557 0.00017784559 -0.0014698786 0.0012852561 0.0040943613 -0.0025140666 -0.000858067 0.002514299 0.0051241154 0.0034380218 -0.0011731908 0.0020658893 0.003792194 0.0039407276 -0.0058592735 -0.006779418 0.0007948862 0.0010982282 0.0041613784 -0.005936354 -0.00484197 -0.002484147 -0.004486369
公車 -0.0056018084 0.0015299134 0.0012007424 0.0023528745 0.002091461 0.006905841 -0.0047808303 0.0011450878 -0.005946023 0.0036729863 0.0031709042 -0.007590571 0.0023143033 -0.0031433203 -0.0037973397 0.001107908 -0.0030701372 -0.005893244 -0.00052088476 0.0019989593 0.005963476 0.0048820297 7.1368836e-06 -0.0047268453 0.0036437456 -0.0012328855 -0.005406406 -0.007840431 -0.005597641 -0.006016951 -0.0060982043 0.0022806798 0.0038802915 -0.002264728 0.0041322866 0.00014629996 0.007601744 -0.0049567083 -0.005334406 0.005022742 0.007502087 0.0026651057 0.006053455 0.0048266505 -0.0072002527 -0.00024547966 -0.0069287936 0.0018418215 0.0061490694 0.0011676985 -0.00076158973 -0.003836022 -0.0054981564 0.005801786 -0.0018452026 0.00039939277 -0.0061844047 -0.0068039997 0.0011425866 -0.0034480018 -0.0007151211 -0.006561509 0.0047670677 0.0037028212 0.0019593656 -0.00091453333 -0.0047227005 0.006043692 0.002532461 -0.007398294
公車站牌 -0.00048763544 0.003285962 0.0057588792 0.0023822384 -0.001734804 0.0012652513 -0.0021956288 0.0052972613 -0.00618044 -0.00028237212 0.006939037 0.0046838503 0.004099331 -0.0023976266 -0.0016817389 0.0051472536 -0.00026166782 -0.0016147017 -0.0020573244 0.003988697 0.0068545346 0.0022354254 -0.003371882 0.0027828268 0.0070344643 -0.00607233 0.0028286928 -9.886646e-05 -0.0018909551 -0.006276024 -0.0014889986 -0.000901621 0.00085885706 0.00481347 -0.0056507797 -0.0081850495 0.0039603235 -0.0048900633 -0.004717967 0.0016242029 0.006227126 -0.0022481568 0.0062194993 -0.0053291186 -0.00039538072 -0.005083143 0.0015932785 -0.0027980397 0.004666484 0.0006398083 -0.0010054032 0.00027086053 9.178074e-06 0.0050914725 -0.0019870377 0.00365194 0.0008934342 7.975107e-05 -0.0057138912 -0.003207327 0.0032091017 -0.0023304138 -0.0016251168 0.008885381 -0.0028203803 -0.00494703 0.005915331 0.005063745 -0.0028935864 0.0040119053
渡船頭 0.0031375692 0.0050772782 0.0036488688 -0.0044866945 -0.0040378906 -0.0066728443 -0.0053079496 0.005171826 -0.004930164 -0.003524698 -0.0006921054 0.005575388 0.00034840498 -0.00042890044 -0.0041971207 -0.001988714 -0.0035089008 -0.0044736112 0.002324765 0.0049923835 -0.0045626936 0.005202662 -0.004840555 -0.0031821185 0.0074618473 -0.0017640119 -0.0074001923 -0.0014467045 0.0045575416 -0.002560423 -0.0048875725 0.00035244733 -0.0039580967 0.005223569 -0.004989213 -0.003444384 -0.0041755117 -0.0024622069 -0.00033807897 0.0023581474 -0.0029668082 0.0062456494 0.006125696 -0.0025570542 0.002620826 0.0022505247 0.004755812 0.0025242758 -0.0043340824 -0.005740451 -0.006843389 0.0017984614 0.0015390082 0.0033097335 -0.0037906559 -0.0060506626 -0.002210869 0.0043028933 -0.0014881499 0.004770033 -0.0077039823 0.0030491017 -0.002325515 0.006708714 -0.0061322567 0.00043543463 -0.0014434789 0.007121539 0.0025803489 -0.00367793
youbike 0.0028326674 0.0006084544 0.0056664916 0.006980681 0.00080617866 -0.005430095 0.0013716931 -0.005434955 -0.004729322 0.00016837203 0.002708829 -0.0025802217 -0.004623366 -0.00079232967 -0.00017446386 0.0045645772 0.006533814 -0.0012497699 0.0054602395 -0.0022380715 0.0067844945 0.0011066954 -0.0040666796 -0.0017916706 0.0053744554 -0.0029394517 0.004952977 -0.0055060633 0.00054983725 0.004759382 0.0026036324 0.0054967543 0.0041706963 0.0043889624 -0.0020425378 -0.0047534574 0.0001490393 -0.0017270132 -0.0011930409 0.0014788578 0.0017820442 0.004021004 0.0056525394 0.006190175 0.0036110915 0.0032358475 0.0002324147 -0.0055062496 -0.0016818078 0.005596242 0.0012653258 0.00056246534 -0.0077621858 0.0009144619 -0.00538542 0.0067283767 0.0058167935 0.00414394 -0.007510221 0.0040428606 -0.006223312 -0.005154131 0.0046356604 0.0074725607 0.0038932266 -0.0031666737 -0.005787087 -0.0031084088 0.004827352 -0.0065670186
腳踏車 -0.0034571735 0.0038791583 -0.0017495038 0.0013038592 0.004740618 0.0018793328 -0.0047820215 -0.004539666 -0.0009168112 0.0066980342 -0.000645656 -0.004806839 0.0038823918 -0.005642366 0.0015068754 0.0028546806 -0.004714273 -0.0059873294 0.0014399394 0.001266382 0.003347921 0.0022784641 -0.0065916376 0.0049956515 0.0032545158 -0.0027167809 -0.0012812308 0.0018643548 0.006586744 -0.0027510414 0.003368966 0.005708994 -0.0041577173 0.0013899237 0.0015697945 -0.0003352277 0.004680495 -0.00075988594 -0.0062041385 -0.0035334514 0.0039006223 -0.0015850443 -0.00031924882 -0.0013186466 -0.00639345 4.0364408e-05 -0.007214505 -0.0018492405 0.003275936 0.00048242995 0.005543941 0.0062838253 -0.0016662752 0.0059411293 0.0064657745 -0.0025621185 0.0061261053 0.0012923214 0.004549332 -0.0058421125 -0.0075308266 -0.0050688316 -8.960345e-05 0.007844274 0.00093543576 -0.008198385 -0.0030889392 -0.0038376148 0.003173925 -0.0028993601
ubike 0.005603656 0.00633332 -0.006136975 -0.005835269 -0.005963744 0.002174927 -0.002136357 0.007704996 -0.0015286508 0.0026254973 0.0018624455 0.0013638529 0.0051799123 -0.00020682767 0.0005066184 0.0012470798 -0.0052335453 -0.00072981446 0.0045425696 0.0011807481 -0.0039080656 -0.005337556 -0.0018718624 0.0041130823 -0.0015151595 -0.00039250602 -0.0037693484 0.0041019446 0.001133222 -0.004928957 0.0022895688 0.005169042 -0.0014714095 0.0038513397 0.0017270787 -0.0063447277 -0.002214661 -0.0038988711 0.0011590667 0.00476212 0.002361688 0.004114353 -0.0030918987 0.0034212894 -0.0029622482 0.0047569117 0.004313113 0.0065175435 0.006640864 0.003921025 -0.003742453 0.0069566034 -0.0066870865 0.0046779932 0.0036980107 0.0012382315 -0.0070136674 -0.0041972753 0.0038737324 0.0024622951 0.004890092 -0.0024568173 0.0010069415 0.0027183448 -0.00417003 -0.0025246202 -0.006141441 0.0066758753 0.0023058483 -0.0005347639
淡水youbike 0.004806367 0.0010713867 0.00634325 0.0066029606 -0.005590629 -0.00028696636 -0.00045393335 -0.004449428 -0.005642448 -0.0036242765 0.002397581 0.0026718818 0.001235619 0.0025176362 0.0032747171 0.0030003444 0.0010996115 0.0030139163 0.003453957 0.0034951745 -0.0032578013 -0.0024218562 0.0015509701 0.005657412 0.007014932 -0.0034349712 0.0022497668 -0.006146252 0.00097096607 -0.0046681357 0.00651864 0.0032184117 0.0054795006 -0.005583307 -0.0001286626 -0.0080692265 -0.004923714 -0.0001140068 0.002638099 0.002045753 -0.0036445514 0.005627396 0.0019169269 0.00600638 0.0049831164 -0.0068621496 0.004433709 -0.0054235733 0.002965641 0.0052781166 -0.0028860057 0.0033593562 -0.0058081257 0.0063112383 -0.005638488 0.003200747 -0.007975026 0.0040837736 0.00048165143 0.0009615441 -0.0054784687 -0.0050950735 -0.00510703 -0.0016583663 0.0039320644 0.004712524 0.0029171938 0.0018903089 0.004595567 -0.00788131
廁所 0.0037019183 0.00021489526 -0.0023951842 -0.006501601 -0.00048150046 0.0013193119 0.002103095 0.00772182 0.0013911966 -0.0026525524 0.007635431 0.0013132714 0.007564198 -0.0015284709 0.0047258013 0.004926872 -0.0061343824 -0.0018048981 0.006960951 -0.004904916 0.005378175 0.006767629 -0.0016024167 -0.003630054 -0.0024705054 -0.0028186077 0.003946392 -0.00032278567 0.0065632216 0.0038073305 -0.003765106 0.0006309517 -0.0053611575 0.0021053816 -0.00025401698 0.004159325 -0.0041173236 -0.0036827587 -0.0074272007 0.006677741 0.0017034559 -0.0023928857 -0.00037983432 -0.002464293 -0.007953592 0.0024705336 0.0016657392 -0.0061709513 -0.0020603293 0.006984829 -0.0051776594 -0.00068813877 -0.002783126 0.002317663 -0.0014808446 0.00029440087 0.006171224 -0.00055528653 -0.0005802491 0.001718023 0.002548615 -0.0037623697 -0.0014887985 -0.002709545 0.0023302846 -0.0005587432 0.005103384 0.0048528695 0.0036040496 0.0017086928
洗手間 0.006812034 3.658791e-05 -0.0051159733 -0.0022021704 -0.0036657029 -0.0010763673 8.174084e-05 0.0054774047 0.006072426 -0.004918209 0.0031115422 -0.005198838 -0.0052876547 0.006577992 0.005605983 0.0033455659 0.0010069112 -0.0050103054 0.0006743369 0.0051965723 0.007101435 0.007227182 -0.0036142147 -0.0045654695 0.002625871 -0.004799456 -0.0009686638 0.0023041773 0.0006240737 0.006026773 -0.0011712629 -0.0012695214 -0.0047192075 0.0025058158 -0.0045265537 0.0056453934 0.0027468111 -0.0006438759 0.0023183161 0.0060211737 0.005779312 -0.0058229757 0.0032250069 0.0005424202 0.003841819 0.0029732496 -0.0071560442 0.0054783872 -0.0038752235 -0.0060224356 0.00067782466 0.0054754983 0.005375827 0.00036386453 0.0011474924 -0.0009592397 0.0049374965 -0.00032704623 -0.0026157824 -0.0037193117 0.0007719769 0.0024639794 -0.0019346282 0.0031203036 0.007351493 0.005216322 -0.0051914705 -0.002958236 0.0021245435 0.0015317997
男廁 0.003419156 0.0045161773 0.0041990965 0.005285265 -0.0049150935 -0.0012060123 -0.001610318 0.0034387244 0.005111828 -0.0054072957 -0.0021911247 -0.00014246123 0.0063799457 0.0015124991 -0.002857247 -0.0038445422 0.001312072 0.0066546174 0.0017856699 -0.006191637 0.0072008185 -0.0009044331 -0.0050582117 -0.003589031 -0.0020383655 -0.0043274513 -0.0067241085 -0.0049845655 -0.0025318838 -0.0003891872 0.000112460686 0.0025901666 0.0023066327 -0.0045087035 0.006329016 -0.005197224 -0.0020364292 0.0050103255 -0.0024330257 0.0039278744 -0.001084129 0.0057742787 0.006141552 0.0037181368 -0.0039067706 0.0031585721 0.0027024066 0.0040577045 0.0017542888 0.0050491705 -0.004840198 0.0028413762 -0.0008213408 -0.0029464369 0.0002933153 0.004903711 0.0063287886 -0.0059242314 -0.0022650359 0.0068985918 -0.004426579 0.0018518786 -0.0026346357 3.5116038e-05 0.0031635116 0.0040521496 -0.004808244 0.00017974818 -0.0065964027 0.0029293764
女廁 0.006449929 -0.004675025 -0.0032764454 0.0054549384 0.0013122675 3.578716e-05 0.000853807 -0.0018460694 -0.002997616 0.004284995 0.0023787008 0.002118417 -0.0034635055 -0.0035255316 0.00013788411 -0.0010578703 -0.004681757 0.004492266 -0.003757532 -0.00226702 0.0053884434 0.00034973831 0.006148688 -0.0052575096 -0.001393871 0.00033048415 -0.004219078 0.0031703906 -0.003580575 0.005310477 -0.006148825 0.0062397933 0.00046521198 0.0030215553 -0.0012158527 -0.00082093995 -0.00029164492 -0.003442687 0.005410892 -0.0033295036 0.0075168116 0.0075025843 -0.003978098 -0.0019546307 -0.0009367509 0.004795333 -0.0045223646 -0.008021839 -0.0021770096 0.004057091 0.006879571 -0.002937217 -0.004431244 0.0020805004 -0.005369043 -0.0056766625 -0.00014423773 -0.0038485578 -0.008251366 -0.006705964 -0.003814574 0.0019895032 -0.007263328 0.008240576 0.0016609092 -0.004063277 -0.002943578 0.004657506 -0.0058111316 -0.003751914
時間 -0.004671183 0.0025269918 -0.006491145 -0.00041823377 -0.0007845432 -0.0056802854 -0.006939522 0.007968491 -0.004080244 0.0036730007 0.0049536712 -0.0074095237 0.003945336 0.0027177741 -0.0039141434 0.0017350996 -0.0010035873 -0.0021077932 0.006840477 0.004916371 0.003286582 -0.0010773656 -0.006112623 0.0055955276 0.007521797 0.0030579197 0.0019708874 -0.0019592938 -0.0010121724 -0.00474749 -0.006933939 0.0035479337 0.0020626578 0.0014200119 0.00032159692 -0.0024133895 0.004475589 0.0025554413 -0.007750849 0.0048311586 0.006714681 0.0069978326 0.0016817839 -0.0016977771 -0.0025044116 -0.005359102 -0.0074766045 -0.00015328686 -0.004703778 0.00028520342 -0.0002583882 -0.0027269474 -0.007278817 -0.00013248647 0.0064800167 0.002232419 -0.004744048 0.0003340137 -0.0034518214 0.0058010807 -0.0070148516 -0.0026409128 -0.0013786005 -0.004377646 -0.0030212752 -0.0073594195 -0.004745423 0.007064907 0.0013763178 -0.00263406
天氣 0.0010534889 0.002191357 -0.0066852528 -0.0022056093 -0.005507253 0.0031072805 -0.002303908 0.00052793254 0.0071842927 0.00170131 0.0064060693 0.0011116853 0.005230494 0.002244034 0.0041820426 -0.0042605987 0.0037482772 0.0059029306 0.009135592 0.00035646273 0.0052716974 0.0072512547 -0.0015455934 -0.007021066 0.008189671 0.005560165 -0.003467658 0.005170305 0.0066691074 0.0031690404 -0.005869204 0.0025330582 -0.0012555507 -0.0032130529 -0.0068754973 -0.006155316 0.004145281 -0.002969079 0.0037395784 -0.0010202178 0.00782875 0.004744774 -0.005671392 0.0012275012 -0.008954597 -0.0022703425 -0.0034147622 -0.0012455537 -0.00252528 0.006584423 0.006776885 0.0006562081 -0.008303865 -0.0050095296 -0.0049340855 -0.00019656173 -0.004664347 -0.004174721 -0.00028075918 0.003334699 -0.0066071553 0.0027620944 -0.0010079568 -0.00073313736 0.0025235075 -0.0043323277 -0.002361526 -0.0048726415 0.003102348 0.00021107696
幾點 -0.0073959613 -0.0021082913 -0.0033600791 0.0067514083 -0.0013455879 0.004445811 0.0065665725 -0.004105567 0.00591539 -0.00455119 -0.0039199363 0.00018264615 0.0016830259 -0.0022962582 -0.0064933705 -0.002342417 0.005137452 -0.007161894 0.008788641 -0.0035194552 -0.0011570462 -0.0012175482 -0.0035152466 -0.00245734 -0.0014309508 -0.0048737973 -0.006147138 0.00037219212 -0.0029466639 -0.0030670755 -0.0068389354 -0.0063900533 0.0029904295 -0.0005453712 -0.006192933 -0.005383122 0.0011725269 -0.0052360627 -0.000497726 0.004332618 0.0024258487 0.0009155313 -0.0047662063 -0.0053858208 0.0036366861 0.0031017659 0.0016308367 -0.007302843 -0.0014284414 0.0025478324 0.004977743 -0.005746977 0.0028248732 0.004598022 0.0016809056 0.00054831535 0.0019749294 -0.0052594673 -0.0006394338 -0.0031466756 -0.005331247 0.0025189673 0.0023013365 -0.0031635622 0.0029230118 -0.0042301817 0.0043384535 1.4287129e-05 -0.0002212549 0.004842435
船 0.0020872706 0.002496269 -0.0069008316 -0.004397283 -0.0018960288 -0.0044485843 0.000869495 0.0027641742 0.003526962 0.0032841428 0.0036896726 0.0062933317 0.0021928202 0.0005871595 0.0062411856 0.00030694765 -0.0048579723 0.0030268172 -0.0004392082 -0.005072472 -0.0028628954 -0.0034096423 0.00016850926 0.0008499087 0.0004049874 -0.005693479 -0.0006360372 -0.0018688748 -0.006773226 0.00046877647 0.000490559 -0.0013957686 0.0048087905 0.0035382262 -0.0026425563 0.0052060517 0.0075735967 -0.0060860403 0.001688026 -0.0027050134 0.0029335432 0.0060318294 0.0038408358 9.369358e-05 0.003294115 -0.002726492 0.0059993938 -0.002021571 0.0022436013 0.0047578346 -0.0033149992 0.0004309453 0.0036817335 -0.0048802188 -0.00577586 0.007436911 0.0034502726 -0.005011488 0.0028137844 -0.0032699876 0.0058500823 0.006210792 -0.0046163406 0.0038825038 -0.004735659 -0.00018021592 -0.003307841 0.0068263737 -0.003824584 0.0037905984
渡船 0.00088343065 0.00022399377 0.0069089844 0.0016304537 0.0015019812 0.006375389 -0.0011798772 0.0055859466 0.0046221064 0.002757908 0.004569311 -0.0012939889 -0.0019701924 -0.0051746457 -0.0025669092 0.0037740155 -0.0025959194 -0.0045814724 -0.0017406333 0.0016205754 0.0034059084 -0.0030070867 0.00028371887 -0.006459778 0.0061013955 -0.0040815636 -0.0036182362 -0.0030635789 0.0045900396 -0.0027341717 0.004333718 -0.0038736404 -0.005176003 0.0029332053 0.0022462758 -0.0032447136 -0.006308629 0.0043072477 -0.007630577 -0.0032103003 -0.0024300464 -0.0006948761 -0.0018296911 0.0021873312 0.00039730416 0.0017080955 0.0006382988 0.0030340783 0.0018305801 0.0010056861 0.0071401396 0.007197997 0.0005070552 -0.00582025 -0.00032529762 -0.0064311842 -0.0048219925 -0.005117505 0.0047711674 0.006583577 -0.0007062272 -0.0023493948 0.0046236007 0.0074919704 0.0070312633 -0.006012055 0.0026640557 0.0041447133 0.0011281676 -0.0024507788
幾點鐘 -0.0058512306 0.0010675669 0.0031455096 -0.0023994236 0.0016306338 0.0047498406 -0.001601995 0.0059585087 0.006959558 -0.005506391 0.0068206233 0.0046610446 -9.721064e-05 -0.0010560107 -0.0059450376 0.006516671 -0.00202994 -0.0028733362 0.001453128 -0.004082847 -0.0024298849 0.0062207985 -0.0023864256 0.0009459103 -0.00032108757 0.0014245257 -0.006991408 -0.0018462356 -0.0042457953 0.0046825083 0.0062945997 0.0019370315 -0.0026931886 0.00018317362 -0.0006241961 0.0008039152 -0.005908641 -0.0066220677 0.0033213883 -0.0015940232 -0.0054659415 0.0017027387 -0.0045026997 -0.0070430236 0.001113189 -0.0025876292 -0.0030567802 -0.005328792 -0.0061917338 -0.00025707722 -0.0065883454 -0.0029502928 0.0034006902 0.0055464157 -0.0047853426 0.0065846066 -0.0040995847 0.0019914124 -0.0010508528 0.006169341 0.002384069 -0.006455156 -0.0075731296 0.003988038 0.0026926324 -0.0062104836 0.0011921562 0.001992967 0.0034132001 -0.005877762
搭船 0.004311836 -0.0066124187 0.005544998 0.006094715 0.004209165 0.00064359163 0.004250124 0.00194021 -0.0028812413 0.0070014205 -0.00040160507 -0.0046800845 0.00041751924 0.0055687907 -0.0003941855 -0.0044590803 0.0029654307 0.0033621392 0.0036098312 0.0049818363 -0.0046933256 -0.005756319 -0.0064234305 -0.004554206 0.0071660248 0.00016053252 0.0054497514 -0.007890486 0.005447163 -0.0073602158 0.0059012654 -0.004057251 0.0044140737 -0.0008059203 -0.00039994268 -0.0043091625 -0.005052341 9.661984e-05 -0.0018943631 0.0033010913 -0.002360182 0.0016637975 -0.0017413663 -0.0035167257 -0.002641826 0.0031304595 -0.0018874615 0.0037037802 0.0013355189 0.0040790895 -0.0047674687 0.0014402125 -0.007147387 0.0036043227 0.005126255 -5.909762e-05 -0.0063370396 0.0044175903 0.0043403544 0.0052587152 -0.0019379656 -0.0038615607 -0.007919704 0.0065077688 -0.0012303098 -0.005271321 -0.0012877331 -0.0055710287 0.0065859444 -0.0014305082
坐船 -0.00020792973 -0.002644055 0.0014211915 0.0046415725 0.0029608 -0.0018355536 0.0062589874 0.0035349561 -0.00011103882 0.007399933 -0.0012215176 -0.00040204063 0.0010838357 -0.0050924313 0.0065437723 -0.0033596684 -0.002438381 -0.004847683 0.00015944436 0.0042275395 -0.0010792204 0.0052616983 0.0022607744 0.00524431 -0.0039172256 -0.0021682365 -0.001679505 0.0046878364 0.003929813 -0.0031281665 -0.00032306096 -0.005118759 -0.00013217588 0.004592764 -0.0026296917 -0.0067762085 0.006849027 0.0031368218 -0.0061125527 -0.0037417978 -0.00090021646 0.004247003 0.00197804 -0.006142952 0.001695928 0.0062516876 -0.00042656838 0.004809225 -0.001892617 -0.004252115 0.0033590668 -0.0026539848 -0.0043314775 -0.0065739946 -0.003585018 0.005734381 -0.0038211409 0.0033989248 0.0040559648 0.0054726205 -0.004312873 -0.0059781694 0.003755733 -0.003683251 -0.0004401903 -0.0031148288 0.005138285 -0.0060474323 0.007377767 0.0035632893
公廁 0.0023429224 -0.0007530881 0.007046998 -0.00063828594 0.003945645 -0.00097634894 0.0033440096 0.006844821 -0.0038377815 -0.00069691037 -0.0058599776 -0.0007506124 0.0005950914 -0.0001826062 0.00076494756 -3.466633e-05 -0.0026947893 0.006061411 -0.0049589598 -0.0016454294 0.0067927595 0.0065384414 -0.0037979463 -0.002810138 0.0046903477 0.0008949671 -0.006771541 6.32589e-05 3.7483645e-05 -0.0072647394 -0.005814841 -0.0030326063 0.004241759 -0.0011790029 -0.0059491936 0.0023866103 -0.00549641 -0.006111732 0.0014106686 -0.0055088783 0.005771101 0.007456579 0.0025254989 -0.0068169143 -0.0051223887 -0.006657307 -0.0016029279 0.005729981 0.005472587 0.004313416 -0.0005238417 -0.0013894999 -0.006297155 0.004396508 0.004155412 -0.0032967099 -0.007547596 -0.0056541283 0.0056995656 -0.00010864394 0.00029173636 0.006423253 -0.0005747719 0.003930621 0.0020709147 0.004591771 0.00075805024 0.007675914 -0.00318263 -0.0004327225
協力車 0.0021424105 -0.0056828326 -0.0017406967 0.0060406863 -0.0058882986 -0.005047589 -0.0012918627 -0.00019722273 0.0022805382 -0.0008198046 0.005205886 0.0022562554 -0.0011602694 -0.0022433815 0.0046378025 -0.0060948017 -0.0027386192 -0.00046470293 0.0027706402 0.0024144226 0.00434992 -0.005163085 -0.004072168 -0.00086797087 -0.0014613417 -0.006811909 -0.0069703353 -0.0023755608 0.00025264642 -0.0035351256 -0.0053903656 0.0057821213 -0.00650489 -0.0028580353 -0.0025980228 -0.008875985 -0.0017671364 0.0055278772 -0.0039307782 -0.0069122193 -0.0035411061 -0.0045855646 0.0006359587 0.0021061727 -0.0072917133 0.0021262264 -0.0013477933 -0.0011439549 -0.002112595 -0.0032237563 -0.000759526 0.0028814115 -0.0037223448 0.0011104366 -0.0008058856 -0.004458039 -0.0007324476 0.00067414285 0.0019912126 -0.004520575 0.0018319419 -0.0005075458 -0.0039024404 0.0026899402 -0.0002782407 0.002843944 -0.00049238687 -0.00031690422 0.00089538033 -0.0034798672
注意 0.0014883132 0.002524362 0.0022826095 0.004166147 -0.0069651124 0.0064927046 0.004154485 0.0009586164 0.00069330365 0.0074029192 -0.004469246 -0.000318309 -0.00033133122 0.003011222 0.0010509081 0.0021010085 0.004655377 -0.002253448 -0.00062594673 0.0042986167 0.0020445106 0.0027277332 0.003232491 0.0067883297 0.0046740533 -0.0031795052 -0.000793945 0.0006278689 -0.0007335392 -0.0038758353 -0.0020001961 0.005543416 0.0030371563 -0.0026052364 0.0055086184 -0.00031057006 0.0002719033 -0.006935329 -0.0013934185 -0.0050776275 0.006685351 0.006288386 -0.0013441086 -0.00704082 0.0033086927 -0.006953771 -0.003249039 -0.0011094922 -0.007051435 -0.0029196928 -0.004518629 -0.0030103475 -0.0056050206 0.002538341 0.0032732266 0.0023415093 -0.0013252316 0.0060796407 -0.0025608372 -0.0011026217 0.003915065 -0.0072434866 -0.005006451 0.0034358655 0.005124273 0.0028137057 -0.0047401143 0.003188343 0.007008133 -0.007205387
警告 -0.002113087 -0.0022960259 -0.003238982 0.0007939369 0.0012165938 0.0048600393 0.003394284 -0.0022500714 0.0015787681 0.004413043 0.0007332402 0.0033058745 0.0050370954 0.0016144748 -0.0063080285 0.0058655487 -0.0071008983 0.006364663 -0.0012642221 0.0024741937 0.005516889 -0.0033026517 0.0014608151 -0.0033416415 0.00021647938 0.00015149315 0.00043316127 0.005919876 0.00719509 0.001371813 -0.0006553222 -0.006337343 0.0053702267 0.0025018642 -0.0009347501 -0.007954474 0.0009172999 -0.005210475 -0.003544952 0.0011428533 0.0011418142 0.0027476489 0.006350518 -0.0016598055 -0.002644475 0.0045538093 0.0012517859 0.0054235402 0.0028385287 -0.0008625976 0.0007765726 -0.0015892643 0.0049596913 -0.005511102 0.0050852885 0.0057014856 -0.0014420237 -0.0021987727 -0.0043273405 8.032653e-05 4.39653e-05 -0.0034401522 0.00022623822 -0.004429257 -0.0043418854 0.004839575 -0.0015432707 0.007226347 -0.0009895241 0.0031386982
不能 0.00031055466 -0.002472165 0.006337911 0.0038472298 -0.0013524 0.0058134915 -0.00028618463 -0.0029187184 0.006282085 0.00024393287 0.0013202176 -0.0074656773 0.0013679797 0.0067129945 -0.0016259392 0.0058124335 0.00012552305 -0.0031583004 -0.0027929556 0.0048787454 0.003962435 -0.006268424 -0.0064327754 -0.0007192455 0.003062937 -0.0066253203 -0.0029773617 -0.004326757 0.0011124979 0.0014396457 0.00152026 -0.00078986393 -0.0003114527 0.0026815787 0.004782193 -0.0037143675 0.004922722 -0.0035448663 0.004188062 -0.0061555374 0.004851157 0.0054949676 -0.005099736 -0.0058121765 -0.006902128 0.0045402823 -0.00013989782 -0.0023938569 0.0007103172 0.0011514123 -0.005187362 0.0045559765 0.0055546314 0.0053990553 0.0066883727 -0.0010742515 -0.005088085 0.0056203045 -0.001974867 0.0057589686 -0.0061541186 0.005317833 0.00027173146 0.004010338 0.000345425 -0.0023233627 -0.0009028242 0.0060055517 0.0043960805 0.0035569356
違規 0.0036279745 0.00096568704 0.006611362 -0.00425268 -0.00044652016 0.0013325786 -0.0065509486 0.004093601 0.005123465 -0.0023890247 -0.0052091833 -0.004663423 0.00016506248 0.0055315346 -0.0053036967 0.0036703676 -0.006783684 -0.00072822097 -0.0038329212 0.0035355156 0.0065770024 -0.005527894 -0.006168595 -0.004809183 0.002284403 0.00049487303 -0.0037405211 0.00092797907 0.007134215 -3.3448086e-05 -0.0037496155 -0.0048676743 -0.0047008744 -0.005015035 0.0014569169 0.0030633037 0.006485993 -0.006697434 0.0031983315 -0.004780919 0.0012401763 -0.003089703 0.0027685927 -0.002738375 0.00066874217 -0.00061739964 0.00630597 -0.00011158892 -0.0072980584 0.0062341946 -0.0026140711 -0.00069637876 -0.0005300021 -0.004843845 0.004868012 -0.0019769154 -0.002244087 0.0031045668 0.0009395182 0.004333201 -0.0035475777 0.004984066 0.0050239954 0.0032122827 0.004685591 -0.006873464 0.005389672 -0.006326759 -0.0019409576 -0.00544553
周杰倫 0.0022568237 -0.0026651619 -0.006597554 -0.002249936 0.004763442 0.0036353008 0.0062904553 0.0071635297 0.006426596 0.003926458 -0.0064400453 -0.0044641136 -0.0014647994 -0.004099019 -0.0024133069 -0.0026771536 -0.0013455639 0.0012857963 -0.0010549149 0.0069096494 -0.0028346393 0.0036985874 0.0072387033 0.006220514 0.0054102293 0.0019935207 0.0011547782 -0.0052729785 0.005230733 0.0025905382 -0.0018082515 0.0061466233 -0.0038256233 0.0048108967 0.006508962 -0.0025268367 -0.0034388602 -0.0017678061 0.0025209708 -0.006997069 -0.0032554965 -0.0007355459 -0.007014679 0.00076608395 0.0014538517 0.0011055612 0.0029837375 -0.003078637 0.0012857916 -0.00036674927 0.0022746508 -0.0013786685 0.0018706382 0.0033228998 0.003967781 -0.0038313435 0.0026955018 -0.005452629 -0.0022656722 -0.0007613969 0.003228724 0.0045918925 -0.0062561496 0.0054152505 0.0008255475 -0.0056151105 -0.007009582 0.0016865087 -0.0015176485 -0.007154137
周傑倫 0.0026285565 0.007115747 -0.006796766 0.007065064 -0.004200096 -0.0042056204 0.0025786846 0.0076017845 0.0034072981 -0.003986636 0.006333036 0.0013232292 -0.00117198 0.0037306016 0.006212421 0.0010674348 0.002965752 0.00056930806 0.005324051 0.0062286016 0.00690241 -0.00047501535 0.00086094823 0.004080009 0.00051347783 -0.00044625916 0.0006410708 0.0050258012 -0.0032066375 0.0013091029 0.0012560275 -0.0046393108 -0.0037796197 0.00067815813 -0.004791469 0.0047992207 -0.0040267855 0.0037529038 -0.0043995683 2.4230367e-05 0.0031966607 -0.0041689263 -0.0060734763 -1.406348e-06 0.003472826 0.0031886804 -0.0048968336 0.0046306793 0.002928878 -0.006753626 -0.0046590087 -0.0032632542 -0.0021607752 -0.0012422391 0.006359271 -0.00506719 0.004517928 -0.0042652097 -0.0069641937 -0.003808359 0.005186209 -0.00063828216 -0.0053747217 -0.001961601 0.0040125945 -0.0059363944 0.0036425337 0.0015199066 0.0009937239 0.004084612
不能說的秘密 0.0001934376 -0.004859222 0.00279814 0.0059173363 -0.003959127 0.0035283528 -0.0061321897 -0.0057449522 0.0054038353 0.007935342 -0.00040813064 0.0028671317 0.0042168573 0.001727981 -0.0018303745 0.0012906273 0.0040526013 0.00059789367 -0.004407383 -0.00080164487 -0.0037989842 0.0034812947 0.0007163387 -0.00519373 0.007670865 -0.005386366 0.000647311 0.004280895 0.0046438402 -0.0056302967 8.668303e-05 -0.003038076 -0.0049401675 0.0065010334 0.0011298736 -0.001961764 0.0029682796 -0.0073648025 0.0059682783 0.006690235 0.0043984163 0.0024908218 -0.0038856703 -0.0061935326 -0.0069878777 0.0026037616 0.0047779516 -0.0015313867 -0.003415919 0.0051411497 0.0043406216 0.006246567 -0.00511162 0.0043401406 -0.0045198523 0.0067476295 -0.005777354 0.0008522759 -0.0066062906 0.0017872421 0.0017665309 -0.006916337 -0.00020352559 0.005225001 0.0064890343 -0.003289721 -0.001489876 -0.0030776218 0.007070136 -0.0004897261
淡江高中 -0.0075421585 0.0068207067 0.00036478677 0.0062530106 0.0046530315 -2.4487537e-05 0.0023336823 -0.0004913678 -0.005142424 0.003025146 -0.0025994221 -3.0862716e-06 0.0013969166 -0.0043210173 -0.0029262067 0.0075543458 -0.004288105 -0.0012943745 -0.0011290943 0.005801621 -0.0031161795 -0.0008475444 -0.005274503 -0.00010670296 -0.003858298 -0.0042240233 -0.006650738 -0.007423549 -0.006635558 -0.006870296 -0.0011429266 -0.00088847516 -0.007137745 0.0038437266 -0.0047365013 -0.0047260495 -0.00081306405 -8.64396e-05 -0.00789812 -0.00420576 0.007114095 0.008347961 -0.0007910815 0.0014934032 -0.0076196943 -0.0068847234 0.0018370746 -0.008028401 -0.0002165391 -0.0054310528 0.0032725146 0.0061776754 -0.004793547 0.008243028 0.0072617154 0.0012846594 0.0040380843 -0.0058283345 -0.007099458 0.0048428085 -0.0033732457 -0.0010759613 0.006025155 -0.00046431329 0.0013630328 0.00091145677 -0.00048471347 0.0057421746 -0.0015869939 0.0038503688
母校 -0.0054710764 0.003419272 0.004733277 0.0042113233 -0.0062063294 0.007091392 -0.00070124445 -0.0005046028 -0.00055723084 0.0065083574 -0.0030088304 -0.002791043 -0.0057662907 -0.006630282 -0.0039118365 0.0028851284 -0.005460934 0.0042046425 0.004067695 0.0007778958 -0.00090739597 -0.0044226074 0.0059487717 -0.006841386 0.0068804035 -0.005857336 -0.0010233602 0.006324945 -0.003892972 0.0018077757 2.9899424e-05 -0.004114884 0.0015610798 0.005595939 0.0020518415 0.0034856375 -0.003281441 0.0037469605 0.00066247996 0.004354517 -0.004315265 0.007598666 -0.0048749465 0.004162039 0.0011730203 0.0020326674 -0.0057361815 -0.0024459197 -0.0039997324 0.0029965516 -0.0057887123 -0.0015801418 0.0036673488 -0.004224108 -0.00012621655 0.007278606 -0.0008714676 0.002776447 -0.0037631488 0.006749689 -0.0026632731 -0.00087075523 -0.00021586716 -0.0037277888 -0.0028034344 0.004759968 -0.0019955076 -0.0019466637 -0.005439529 0.0018588976
mrt 0.0057682465 0.0061429627 0.004542825 0.0024040798 0.0008783069 -0.0015671123 -0.0062490753 0.0022841147 0.0005093101 -0.004594829 -0.00376111 0.0022096403 0.007269554 -0.005803075 -0.0037869604 0.0053159385 0.0025280376 0.0040959967 0.0010392201 0.0013560647 0.005098786 -0.0032456706 0.0038757718 0.0019082569 0.0034115443 -0.0013231777 -0.007043356 -0.0067959796 -0.0054189875 -0.0037598964 -0.0037938103 0.0070833596 -0.003948612 0.00059887295 -0.005115277 0.005413582 -0.003667119 0.0048534204 0.004889523 0.0035242136 -0.0029974284 -0.00045605382 0.00040757487 -0.0061533586 -0.0056701554 0.0064051887 0.0052360445 0.0016380573 -0.003022544 0.00020468433 -0.0054041985 0.0015660435 -0.0034326091 0.0039059692 0.005922551 0.0024845914 0.003142261 -0.005002329 -0.0005437759 0.005602344 0.0058854544 -2.969423e-05 0.0018184613 0.007500314 -0.0033548262 -0.0010762776 -0.0073242397 0.007569469 0.004769286 -0.0037230558
metro 0.000357594 0.0015136048 -0.005524174 0.0011132319 0.0027732379 -0.0043147444 0.005254597 -0.0014845824 -0.0036203023 0.0034237208 0.0051768 -0.0008849868 -0.003825339 0.0010109519 -0.0037649116 -0.0015737646 -0.0015176608 -0.0026430741 -0.006637759 0.0004810941 -0.0029513517 -0.0035720626 0.005531194 7.247716e-05 0.0048087994 0.0061559808 -0.004685953 0.006268963 -0.003942728 -0.0067634718 1.20464565e-05 -0.0052978327 0.0005926488 -0.005557583 0.00028568108 0.0046396125 -0.00041492868 -0.0010327074 0.002171378 -0.0036527019 -0.005085113 -0.0052256654 0.003384579 -0.002594156 -0.00619938 0.0030171727 -0.0039249184 0.0050867777 -0.0044025406 0.0002290135 0.0065557156 0.0020227698 -0.0032191004 0.003778845 0.002081007 -0.0021922064 0.0052250726 0.0031266364 -0.0070294435 0.0062037804 0.005893074 -0.0037890135 -0.0030809164 -0.005537972 -0.005969483 0.0011699583 0.003090769 0.0059825387 -0.00081249827 -0.0050980304
夕陽 -0.0009962351 -0.0031725876 -0.00047665185 -0.0015885372 0.0040523363 -0.0068938313 -0.0021911552 -0.003277099 -0.0043996274 0.0010986575 -0.0008473691 -0.0008275954 -4.6281737e-05 -0.0021083907 0.004414641 -0.003897097 0.0019129822 -0.0064872196 0.0057126028 0.0070003187 0.003053139 0.0062952307 0.0028064128 0.00509881 -0.002381627 0.004121054 -0.0004570465 -0.0059163542 -0.0040922663 0.0014119933 0.0068992283 0.0064137443 -0.0058404645 -0.0035376772 0.0048664873 -0.00563121 -0.0062333853 -0.0043636723 -0.005764494 0.0007369066 0.00787126 0.004172379 0.0019672085 -0.0007858658 0.00035710132 -0.0002391248 -0.0063767335 0.0016742251 -0.0073636905 0.0025545212 0.0032032232 -0.0027417215 -0.0067537255 0.00382435 -0.0041794027 0.004507989 0.005537463 -0.00299128 -0.002911578 0.0037862277 0.002065655 -0.0004406906 0.0044477955 0.007087024 0.00242668 -0.008291297 -0.0035847982 0.004389898 -0.0052997824 -0.008708571
日落 -0.00044837163 0.0032245992 -0.0053049335 -0.002299101 0.0058344156 0.0070161154 -0.0011687791 0.00799669 0.0022301092 -0.0001546712 -0.0005215755 0.005262156 -0.004433701 -0.0013670654 0.00076532055 0.005503609 -0.0052210735 0.006144447 0.006661214 0.004900755 0.00075701595 -0.002068955 0.0068699266 -0.0030335842 0.0023999382 0.0041440837 0.0041341707 -0.0018088392 0.0017392617 -0.0037246929 0.005131708 0.0061998963 0.0013528524 0.0011153535 -0.00022453436 -0.005462292 0.002481889 -0.0025220208 -0.0062430217 -0.0025623755 -0.0059601744 -0.0015920036 -0.0063252416 0.002754872 -0.0011035919 -0.0073904814 -0.0014972327 0.0011862227 0.0006750615 0.0028224732 0.0054039694 -0.0041439594 -0.0074896878 0.007223975 0.0072076307 0.00044772399 0.0060148686 -0.0054819225 -0.0013697135 -0.0009011104 0.0054912968 -0.0014625818 -0.001695158 -0.0034411834 0.0020773213 -0.008313261 -0.006221857 0.002567339 0.0027260587 -0.00074806245
太陽下山 -0.004937983 0.0008401685 -0.0035800298 -0.0032046558 -0.003280937 -0.0013686032 -0.0028938605 0.0007621107 -0.0009965288 -0.0029162453 0.0035945044 -0.004268729 -0.005613332 -0.0066010244 0.0053915973 -0.0018024532 0.0013581729 -0.00089201017 0.00034818967 0.0011153651 -0.0032333208 0.0035195828 -0.0055866404 -0.0013781387 -0.004731673 0.002984734 0.0024580199 -0.006784507 -0.00699433 -0.0013893365 0.0052324114 -0.002152917 0.0069340863 -0.005511189 0.0025386894 -0.0030321633 -0.005176703 -0.0018240991 -0.005165504 -0.0011513627 -0.0058190622 0.00416896 -0.007208587 -0.0032885221 0.004860778 0.0020875512 -0.0050308146 -0.001692779 -0.0037098457 0.0014982572 0.0055190516 -0.0003985065 -0.002327234 -0.0028806352 -0.004101525 0.0063038473 -0.006697929 -0.0009624739 -0.00042553057 0.005881696 0.006707193 0.0022360792 0.00011276666 0.0071583316 -0.006496457 -0.006716547 -0.004760545 0.0034064855 -0.0043991506 0.0064472645
星期 -0.0068310974 -0.00505606 0.006509454 -0.0024144019 0.0017393399 0.003777507 0.002431894 0.0020034558 0.0064410763 0.0024907677 -0.0024139422 -0.0028910784 0.0020922138 -0.0007055352 -0.0032799996 -0.0042369645 -0.0018122268 0.00020835373 0.006376304 0.0040569464 0.00078689016 0.000296462 0.004820631 -0.001811341 0.0013660473 -0.0047942093 -0.0052040294 -0.0024121886 -0.0022731419 -0.0068860883 -0.004771118 -0.0014943224 0.005313848 0.0032326032 -0.00658967 -0.0031257924 0.006349285 0.005226928 -0.002296483 0.0064371084 -0.004025006 0.007382124 0.00033025595 -0.0070360806 -0.0027257637 0.0005727834 -0.006999345 -0.0062867193 0.0060272524 -0.0022588668 -0.0053225337 -0.0034769098 -0.00273777 -0.0024005626 0.0021849284 -0.006653198 0.0031784154 -0.004118331 -0.0013409291 0.0031533558 -0.006884168 0.0026179631 0.00581746 -0.0021231503 0.0040977085 -0.007396901 0.00038187415 -0.0036957273 -0.0013918868 0.003342061
八里 0.0011357805 -0.0030730816 -0.003939017 -0.0008790116 -0.004588815 -0.0055766427 0.00015414627 -0.0030943353 0.006852886 0.0029966992 0.0021326244 0.002467271 9.851677e-05 0.0057579908 -0.0019330152 0.0023405051 -0.006311077 -0.0069313934 0.0043329783 0.0010717434 -0.0048408806 -0.00489729 0.0038651722 -0.0049025766 0.0004794307 -0.006112297 -0.0072830925 0.0042017247 0.005414834 -0.0028578404 0.00442197 -0.0026061998 -0.0036356475 -0.0032025569 -0.0049481615 0.0015185275 -0.0048136557 -0.0062927343 -0.0039182683 -0.0058504096 0.0040544453 -0.0018526916 -0.0013925554 2.4540517e-05 -0.0014803408 -0.007297092 -0.0026690841 -0.0058200597 0.0024985438 0.006045625 0.00031723749 0.00684865 -0.0028111574 -0.003840927 -0.0044346494 0.0030293167 -0.005983989 0.0018555329 -0.007154922 -0.00306499 -0.0071262904 0.002198942 0.005492132 -0.0014515994 -0.006455848 -0.0064523043 5.208076e-05 0.005895768 0.0037326566 0.0035861705
渴 -0.0046518585 0.004307273 0.004541869 0.004233242 -0.00030810514 0.0017380511 -0.0054092836 0.0035631445 -0.005139814 0.0054082065 0.0077448613 -0.0031522568 -0.0039415834 -0.0038163662 -0.00089272903 -0.0042592897 -0.0028460263 -0.002687124 -0.0053238412 -0.006285561 -0.0024496615 -0.0051637776 0.0016510313 0.0051484546 0.004402014 0.0018324493 0.003406186 -0.0027924355 0.004977574 -0.0017738154 0.006793024 0.001948865 0.0036575932 0.003926871 0.004041283 -0.005967138 -0.0016349436 -0.0055107432 0.00096994836 0.0014023163 -0.0010864816 0.0033100846 0.0011938323 -0.00080946356 -0.007910685 -0.006584945 0.002710473 -0.006020383 -0.00065565476 0.006431392 -0.006166059 -0.0025870665 -0.0030593965 -0.0016181736 -0.005379393 0.006481294 -0.0055794707 -0.0054253754 -0.0065462277 -0.002884056 0.004793525 0.005004929 -0.0059322184 0.0008127428 0.005168276 -0.0055775624 -0.0025903343 0.003852458 0.0025556704 0.00432579
餓 -0.004444634 0.0063925646 0.0004387016 -0.0050068013 -0.0041524586 -0.0011710571 0.0018432463 -0.0030763352 -0.00613858 9.853822e-05 0.007272419 0.0018642249 0.0017942571 -0.0064059556 0.00052205473 0.0005996107 0.000659396 0.0016462487 0.0013531742 -0.006635053 -0.004205869 -0.0020848354 -0.002982874 0.005758732 0.0013497322 0.00047681842 0.0016889127 0.00065145636 -0.004563346 0.0014681466 0.0063628694 -0.006229893 0.0015171337 0.006167451 0.0046558697 -0.00096761447 0.0060845306 -0.0048626456 0.0027438926 -0.0033303178 -0.004084605 0.002918998 -0.0052576815 0.0067920317 -0.006962705 -0.0028635093 -0.0018613377 -0.0063002184 -0.004211158 -0.0033262756 0.0043279245 0.005645985 0.006522252 0.0006493743 -0.001029998 0.004118671 -0.0026940473 0.0011571189 0.003259923 -0.002999954 0.0002479842 -0.0035833202 -0.0016205134 0.0016398827 0.002436076 -0.0036441118 0.0034158642 0.0017909252 0.0023395529 0.00546957
